%YAML:1.0
---
opencv_ml_rtrees:
   format: 3
   is_classifier: 1
   var_all: 5
   var_count: 4
   ord_var_count: 4
   cat_var_count: 1
   training_params:
      use_surrogates: 0
      max_categories: 10
      regression_accuracy: 0.
      max_depth: 5
      min_sample_count: 10
      cross_validation_folds: 0
      nactive_vars: 0
   global_var_idx: 1
   var_idx: [ 0, 1, 2, 3 ]
   var_type: [ 0, 0, 0, 0, 1 ]
   cat_ofs: [ 0, 0, 0, 0, 0, 0, 0, 0 ]
   class_labels: [ 0, 1, 2, 3, 4, 5 ]
   missing_subst: [ 0., 0., 0., 0., 0. ]
   oob_error: 1.5638595604069855e-01
   ntrees: 100
   trees:
      -
         nodes:
            -
               depth: 0
               value: 0.
               norm_class_idx: 0
               splits:
                  - { var:0, quality:9.1851226562500000e+04,
                      le:1.4550000000000000e+02 }
            -
               depth: 1
               value: 5.
               norm_class_idx: 5
               splits:
                  - { var:0, quality:7.2757101562500000e+04,
                      le:7.5500000000000000e+01 }
            -
               depth: 2
               value: 5.
               norm_class_idx: 5
               splits:
                  - { var:0, quality:4.9641859375000000e+04,
                      le:5.7500000000000000e+01 }
            -
               depth: 3
               value: 5.
               norm_class_idx: 5
               splits:
                  - { var:1, quality:3.7382421875000000e+04,
                      le:5.6500000000000000e+01 }
            -
               depth: 4
               value: 5.
               norm_class_idx: 5
               splits:
                  - { var:0, quality:2.4566578125000000e+04,
                      le:4.3500000000000000e+01 }
            -
               depth: 5
               value: 5.
               norm_class_idx: 5
            -
               depth: 5
               value: 5.
               norm_class_idx: 5
            -
               depth: 4
               value: 3.
               norm_class_idx: 3
               splits:
                  - { var:1, quality:1.4075591796875000e+04,
                      le:6.8500000000000000e+01 }
            -
               depth: 5
               value: 3.
               norm_class_idx: 3
            -
               depth: 5
               value: 5.
               norm_class_idx: 5
            -
               depth: 3
               value: 2.
               norm_class_idx: 2
               splits:
                  - { var:2, quality:2.2938525390625000e+04,
                      le:6.4500000000000000e+01 }
            -
               depth: 4
               value: 5.
               norm_class_idx: 5
               splits:
                  - { var:2, quality:3.6674592285156250e+03,
                      le:5.6500000000000000e+01 }
            -
               depth: 5
               value: 3.
               norm_class_idx: 3
            -
               depth: 5
               value: 5.
               norm_class_idx: 5
            -
               depth: 4
               value: 2.
               norm_class_idx: 2
               splits:
                  - { var:1, quality:2.0800289062500000e+04,
                      le:9.9500000000000000e+01 }
            -
               depth: 5
               value: 2.
               norm_class_idx: 2
            -
               depth: 5
               value: 1.
               norm_class_idx: 1
            -
               depth: 2
               value: 1.
               norm_class_idx: 1
               splits:
                  - { var:1, quality:5.5062250000000000e+04,
                      le:1.4150000000000000e+02 }
            -
               depth: 3
               value: 1.
               norm_class_idx: 1
               splits:
                  - { var:1, quality:4.3791257812500000e+04,
                      le:1.0550000000000000e+02 }
            -
               depth: 4
               value: 4.
               norm_class_idx: 4
               splits:
                  - { var:1, quality:1.1732098632812500e+04,
                      le:8.9500000000000000e+01 }
            -
               depth: 5
               value: 4.
               norm_class_idx: 4
            -
               depth: 5
               value: 2.
               norm_class_idx: 2
            -
               depth: 4
               value: 1.
               norm_class_idx: 1
               splits:
                  - { var:0, quality:4.3333382812500000e+04,
                      le:1.2050000000000000e+02 }
            -
               depth: 5
               value: 1.
               norm_class_idx: 1
            -
               depth: 5
               value: 4.
               norm_class_idx: 4
            -
               depth: 3
               value: 3.
               norm_class_idx: 3
               splits:
                  - { var:1, quality:2.1770347656250000e+04,
                      le:1.4550000000000000e+02 }
            -
               depth: 4
               value: 3.
               norm_class_idx: 3
               splits:
                  - { var:3, quality:1.7504971923828125e+03,
                      le:2.0350000000000000e+02 }
            -
               depth: 5
               value: 1.
               norm_class_idx: 1
            -
               depth: 5
               value: 3.
               norm_class_idx: 3
            -
               depth: 4
               value: 3.
               norm_class_idx: 3
               splits:
                  - { var:2, quality:2.0436214843750000e+04,
                      le:1.2150000000000000e+02 }
            -
               depth: 5
               value: 3.
               norm_class_idx: 3
            -
               depth: 5
               value: 3.
               norm_class_idx: 3
            -
               depth: 1
               value: 0.
               norm_class_idx: 0
               splits:
                  - { var:1, quality:6.0069488281250000e+04,
                      le:1.8150000000000000e+02 }
            -
               depth: 2
               value: 0.
               norm_class_idx: 0
               splits:
                  - { var:2, quality:4.7974722656250000e+04,
                      le:1.3050000000000000e+02 }
            -
               depth: 3
               value: 0.
               norm_class_idx: 0
               splits:
                  - { var:0, quality:3.7357203125000000e+04,
                      le:1.4750000000000000e+02 }
            -
               depth: 4
               value: 4.
               norm_class_idx: 4
               splits:
                  - { var:2, quality:4.9028265380859375e+02,
                      le:1.2650000000000000e+02 }
            -
               depth: 5
               value: 4.
               norm_class_idx: 4
            -
               depth: 5
               value: 4.
               norm_class_idx: 4
            -
               depth: 4
               value: 0.
               norm_class_idx: 0
               splits:
                  - { var:0, quality:3.7017859375000000e+04,
                      le:1.4950000000000000e+02 }
            -
               depth: 5
               value: 0.
               norm_class_idx: 0
            -
               depth: 5
               value: 0.
               norm_class_idx: 0
            -
               depth: 3
               value: 0.
               norm_class_idx: 0
               splits:
                  - { var:0, quality:1.4988450195312500e+04,
                      le:1.8750000000000000e+02 }
            -
               depth: 4
               value: 4.
               norm_class_idx: 4
               splits:
                  - { var:3, quality:1.1329918945312500e+04,
                      le:1.3450000000000000e+02 }
            -
               depth: 5
               value: 0.
               norm_class_idx: 0
            -
               depth: 5
               value: 4.
               norm_class_idx: 4
            -
               depth: 4
               value: 0.
               norm_class_idx: 0
               splits:
                  - { var:2, quality:8.0496972656250000e+03,
                      le:1.7150000000000000e+02 }
            -
               depth: 5
               value: 0.
               norm_class_idx: 0
            -
               depth: 5
               value: 4.
               norm_class_idx: 4
            -
               depth: 2
               value: 4.
               norm_class_idx: 4
               splits:
                  - { var:2, quality:1.7453531250000000e+04,
                      le:1.6050000000000000e+02 }
            -
               depth: 3
               value: 3.
               norm_class_idx: 3
               splits:
                  - { var:3, quality:1.9223077392578125e+02, le:197. }
            -
               depth: 4
               value: 4.
               norm_class_idx: 4
            -
               depth: 4
               value: 3.
               norm_class_idx: 3
               splits:
                  - { var:2, quality:1.7269810485839844e+02,
                      le:1.5550000000000000e+02 }
            -
               depth: 5
               value: 3.
               norm_class_idx: 3
            -
               depth: 5
               value: 3.
               norm_class_idx: 3
            -
               depth: 3
               value: 4.
               norm_class_idx: 4
               splits:
                  - { var:1, quality:1.7367214843750000e+04,
                      le:1.8350000000000000e+02 }
            -
               depth: 4
               value: 4.
               norm_class_idx: 4
               splits:
                  - { var:3, quality:5.1383258056640625e+02,
                      le:1.8150000000000000e+02 }
            -
               depth: 5
               value: 4.
               norm_class_idx: 4
            -
               depth: 5
               value: 4.
               norm_class_idx: 4
            -
               depth: 4
               value: 4.
               norm_class_idx: 4
               splits:
                  - { var:3, quality:1.6892308593750000e+04, le:229. }
            -
               depth: 5
               value: 4.
               norm_class_idx: 4
            -
               depth: 5
               value: 3.
               norm_class_idx: 3
      -
         nodes:
            -
               depth: 0
               value: 2.
               norm_class_idx: 2
               splits:
                  - { var:0, quality:9.1667171875000000e+04,
                      le:1.4450000000000000e+02 }
            -
               depth: 1
               value: 5.
               norm_class_idx: 5
               splits:
                  - { var:1, quality:7.3395734375000000e+04,
                      le:1.0150000000000000e+02 }
            -
               depth: 2
               value: 5.
               norm_class_idx: 5
               splits:
                  - { var:2, quality:5.3732253906250000e+04,
                      le:6.2500000000000000e+01 }
            -
               depth: 3
               value: 5.
               norm_class_idx: 5
               splits:
                  - { var:1, quality:3.8585312500000000e+04,
                      le:5.5500000000000000e+01 }
            -
               depth: 4
               value: 5.
               norm_class_idx: 5
               splits:
                  - { var:0, quality:2.4093070312500000e+04,
                      le:4.3500000000000000e+01 }
            -
               depth: 5
               value: 5.
               norm_class_idx: 5
            -
               depth: 5
               value: 5.
               norm_class_idx: 5
            -
               depth: 4
               value: 3.
               norm_class_idx: 3
               splits:
                  - { var:0, quality:1.6509486328125000e+04,
                      le:7.0500000000000000e+01 }
            -
               depth: 5
               value: 3.
               norm_class_idx: 3
            -
               depth: 5
               value: 4.
               norm_class_idx: 4
            -
               depth: 3
               value: 2.
               norm_class_idx: 2
               splits:
                  - { var:0, quality:3.0830923828125000e+04,
                      le:8.2500000000000000e+01 }
            -
               depth: 4
               value: 2.
               norm_class_idx: 2
               splits:
                  - { var:1, quality:2.6184033203125000e+04,
                      le:7.2500000000000000e+01 }
            -
               depth: 5
               value: 5.
               norm_class_idx: 5
            -
               depth: 5
               value: 2.
               norm_class_idx: 2
            -
               depth: 4
               value: 4.
               norm_class_idx: 4
               splits:
                  - { var:3, quality:9.5193857421875000e+03,
                      le:1.4650000000000000e+02 }
            -
               depth: 5
               value: 4.
               norm_class_idx: 4
            -
               depth: 5
               value: 3.
               norm_class_idx: 3
            -
               depth: 2
               value: 1.
               norm_class_idx: 1
               splits:
                  - { var:3, quality:5.3732800781250000e+04,
                      le:2.0650000000000000e+02 }
            -
               depth: 3
               value: 1.
               norm_class_idx: 1
               splits:
                  - { var:0, quality:4.1238703125000000e+04,
                      le:1.1850000000000000e+02 }
            -
               depth: 4
               value: 1.
               norm_class_idx: 1
               splits:
                  - { var:1, quality:3.8382503906250000e+04,
                      le:1.0850000000000000e+02 }
            -
               depth: 5
               value: 1.
               norm_class_idx: 1
            -
               depth: 5
               value: 1.
               norm_class_idx: 1
            -
               depth: 4
               value: 4.
               norm_class_idx: 4
               splits:
                  - { var:3, quality:1.0591878906250000e+04,
                      le:1.2750000000000000e+02 }
            -
               depth: 5
               value: 2.
               norm_class_idx: 2
            -
               depth: 5
               value: 4.
               norm_class_idx: 4
            -
               depth: 3
               value: 3.
               norm_class_idx: 3
               splits:
                  - { var:1, quality:2.2060517578125000e+04,
                      le:1.3850000000000000e+02 }
            -
               depth: 4
               value: 1.
               norm_class_idx: 1
               splits:
                  - { var:2, quality:1.5463006591796875e+03,
                      le:1.0650000000000000e+02 }
            -
               depth: 5
               value: 1.
               norm_class_idx: 1
            -
               depth: 5
               value: 2.
               norm_class_idx: 2
            -
               depth: 4
               value: 3.
               norm_class_idx: 3
               splits:
                  - { var:1, quality:2.0820869140625000e+04,
                      le:1.4350000000000000e+02 }
            -
               depth: 5
               value: 3.
               norm_class_idx: 3
            -
               depth: 5
               value: 3.
               norm_class_idx: 3
            -
               depth: 1
               value: 0.
               norm_class_idx: 0
               splits:
                  - { var:3, quality:6.7016968750000000e+04,
                      le:1.2350000000000000e+02 }
            -
               depth: 2
               value: 0.
               norm_class_idx: 0
               splits:
                  - { var:2, quality:4.1574300781250000e+04,
                      le:1.3250000000000000e+02 }
            -
               depth: 3
               value: 0.
               norm_class_idx: 0
               splits:
                  - { var:3, quality:4.0119148437500000e+04,
                      le:1.1650000000000000e+02 }
            -
               depth: 4
               value: 0.
               norm_class_idx: 0
               splits:
                  - { var:0, quality:4.0017878906250000e+04,
                      le:1.4550000000000000e+02 }
            -
               depth: 5
               value: 0.
               norm_class_idx: 0
            -
               depth: 5
               value: 0.
               norm_class_idx: 0
            -
               depth: 4
               value: 2.
               norm_class_idx: 2
               splits:
                  - { var:0, quality:156., le:1.5750000000000000e+02 }
            -
               depth: 5
               value: 2.
               norm_class_idx: 2
            -
               depth: 5
               value: 0.
               norm_class_idx: 0
            -
               depth: 3
               value: 0.
               norm_class_idx: 0
               splits:
                  - { var:0, quality:2.0717741699218750e+03,
                      le:1.5550000000000000e+02 }
            -
               depth: 4
               value: 2.
               norm_class_idx: 2
               splits:
                  - { var:3, quality:302., le:105. }
            -
               depth: 5
               value: 0.
               norm_class_idx: 0
            -
               depth: 5
               value: 2.
               norm_class_idx: 2
            -
               depth: 4
               value: 0.
               norm_class_idx: 0
               splits:
                  - { var:2, quality:1.8548872070312500e+03,
                      le:1.3650000000000000e+02 }
            -
               depth: 5
               value: 0.
               norm_class_idx: 0
            -
               depth: 5
               value: 0.
               norm_class_idx: 0
            -
               depth: 2
               value: 4.
               norm_class_idx: 4
               splits:
                  - { var:1, quality:2.8821248046875000e+04,
                      le:1.8250000000000000e+02 }
            -
               depth: 3
               value: 4.
               norm_class_idx: 4
               splits:
                  - { var:3, quality:1.8649982421875000e+04,
                      le:1.7950000000000000e+02 }
            -
               depth: 4
               value: 4.
               norm_class_idx: 4
               splits:
                  - { var:2, quality:1.1316726562500000e+04,
                      le:1.6050000000000000e+02 }
            -
               depth: 5
               value: 4.
               norm_class_idx: 4
            -
               depth: 5
               value: 4.
               norm_class_idx: 4
            -
               depth: 4
               value: 0.
               norm_class_idx: 0
               splits:
                  - { var:0, quality:8.7969218750000000e+03,
                      le:1.8650000000000000e+02 }
            -
               depth: 5
               value: 4.
               norm_class_idx: 4
            -
               depth: 5
               value: 0.
               norm_class_idx: 0
            -
               depth: 3
               value: 4.
               norm_class_idx: 4
               splits:
                  - { var:0, quality:1.7424945312500000e+04,
                      le:1.8050000000000000e+02 }
            -
               depth: 4
               value: 3.
               norm_class_idx: 3
               splits:
                  - { var:2, quality:1.7693817138671875e+02,
                      le:1.6150000000000000e+02 }
            -
               depth: 5
               value: 3.
               norm_class_idx: 3
            -
               depth: 5
               value: 4.
               norm_class_idx: 4
            -
               depth: 4
               value: 4.
               norm_class_idx: 4
               splits:
                  - { var:1, quality:1.7307746093750000e+04,
                      le:1.8450000000000000e+02 }
            -
               depth: 5
               value: 4.
               norm_class_idx: 4
            -
               depth: 5
               value: 4.
               norm_class_idx: 4
      -
         nodes:
            -
               depth: 0
               value: 5.
               norm_class_idx: 5
               splits:
                  - { var:0, quality:9.1733945312500000e+04,
                      le:1.4550000000000000e+02 }
            -
               depth: 1
               value: 5.
               norm_class_idx: 5
               splits:
                  - { var:1, quality:7.3486960937500000e+04,
                      le:1.0150000000000000e+02 }
            -
               depth: 2
               value: 5.
               norm_class_idx: 5
               splits:
                  - { var:2, quality:5.3640750000000000e+04,
                      le:6.2500000000000000e+01 }
            -
               depth: 3
               value: 5.
               norm_class_idx: 5
               splits:
                  - { var:1, quality:3.8974988281250000e+04,
                      le:5.6500000000000000e+01 }
            -
               depth: 4
               value: 5.
               norm_class_idx: 5
               splits:
                  - { var:0, quality:2.4976296875000000e+04,
                      le:4.3500000000000000e+01 }
            -
               depth: 5
               value: 5.
               norm_class_idx: 5
            -
               depth: 5
               value: 5.
               norm_class_idx: 5
            -
               depth: 4
               value: 3.
               norm_class_idx: 3
               splits:
                  - { var:0, quality:1.6185300781250000e+04,
                      le:7.0500000000000000e+01 }
            -
               depth: 5
               value: 3.
               norm_class_idx: 3
            -
               depth: 5
               value: 4.
               norm_class_idx: 4
            -
               depth: 3
               value: 2.
               norm_class_idx: 2
               splits:
                  - { var:1, quality:2.3796732421875000e+04,
                      le:6.9500000000000000e+01 }
            -
               depth: 4
               value: 5.
               norm_class_idx: 5
               splits:
                  - { var:1, quality:1.9519700927734375e+03,
                      le:6.6500000000000000e+01 }
            -
               depth: 5
               value: 5.
               norm_class_idx: 5
            -
               depth: 5
               value: 5.
               norm_class_idx: 5
            -
               depth: 4
               value: 2.
               norm_class_idx: 2
               splits:
                  - { var:0, quality:3.0096390625000000e+04,
                      le:8.2500000000000000e+01 }
            -
               depth: 5
               value: 2.
               norm_class_idx: 2
            -
               depth: 5
               value: 4.
               norm_class_idx: 4
            -
               depth: 2
               value: 1.
               norm_class_idx: 1
               splits:
                  - { var:1, quality:5.7231273437500000e+04,
                      le:1.4150000000000000e+02 }
            -
               depth: 3
               value: 1.
               norm_class_idx: 1
               splits:
                  - { var:0, quality:4.3118832031250000e+04,
                      le:1.1850000000000000e+02 }
            -
               depth: 4
               value: 1.
               norm_class_idx: 1
               splits:
                  - { var:3, quality:4.2725640625000000e+04,
                      le:1.2250000000000000e+02 }
            -
               depth: 5
               value: 2.
               norm_class_idx: 2
            -
               depth: 5
               value: 1.
               norm_class_idx: 1
            -
               depth: 4
               value: 4.
               norm_class_idx: 4
               splits:
                  - { var:3, quality:1.0759970703125000e+04,
                      le:1.2850000000000000e+02 }
            -
               depth: 5
               value: 2.
               norm_class_idx: 2
            -
               depth: 5
               value: 4.
               norm_class_idx: 4
            -
               depth: 3
               value: 3.
               norm_class_idx: 3
               splits:
                  - { var:3, quality:2.2052052734375000e+04,
                      le:2.0150000000000000e+02 }
            -
               depth: 4
               value: 1.
               norm_class_idx: 1
               splits:
                  - { var:3, quality:3.6304119873046875e+02,
                      le:1.8350000000000000e+02 }
            -
               depth: 5
               value: 4.
               norm_class_idx: 4
            -
               depth: 5
               value: 1.
               norm_class_idx: 1
            -
               depth: 4
               value: 3.
               norm_class_idx: 3
               splits:
                  - { var:2, quality:2.1992953125000000e+04,
                      le:1.1750000000000000e+02 }
            -
               depth: 5
               value: 3.
               norm_class_idx: 3
            -
               depth: 5
               value: 3.
               norm_class_idx: 3
            -
               depth: 1
               value: 0.
               norm_class_idx: 0
               splits:
                  - { var:3, quality:6.6725140625000000e+04,
                      le:1.2550000000000000e+02 }
            -
               depth: 2
               value: 0.
               norm_class_idx: 0
               splits:
                  - { var:3, quality:4.1901015625000000e+04,
                      le:1.1650000000000000e+02 }
            -
               depth: 3
               value: 0.
               norm_class_idx: 0
               splits:
                  - { var:2, quality:4.1520398437500000e+04,
                      le:1.3050000000000000e+02 }
            -
               depth: 4
               value: 0.
               norm_class_idx: 0
               splits:
                  - { var:0, quality:3.8789902343750000e+04,
                      le:1.4650000000000000e+02 }
            -
               depth: 5
               value: 0.
               norm_class_idx: 0
            -
               depth: 5
               value: 0.
               norm_class_idx: 0
            -
               depth: 4
               value: 0.
               norm_class_idx: 0
               splits:
                  - { var:3, quality:2.7548039550781250e+03,
                      le:1.0550000000000000e+02 }
            -
               depth: 5
               value: 0.
               norm_class_idx: 0
            -
               depth: 5
               value: 0.
               norm_class_idx: 0
            -
               depth: 3
               value: 2.
               norm_class_idx: 2
               splits:
                  - { var:0, quality:7.8241180419921875e+02,
                      le:1.6750000000000000e+02 }
            -
               depth: 4
               value: 2.
               norm_class_idx: 2
               splits:
                  - { var:1, quality:3.9675350952148438e+02,
                      le:1.5250000000000000e+02 }
            -
               depth: 5
               value: 2.
               norm_class_idx: 2
            -
               depth: 5
               value: 2.
               norm_class_idx: 2
            -
               depth: 4
               value: 0.
               norm_class_idx: 0
               splits:
                  - { var:3, quality:3.8608792114257812e+02,
                      le:1.1750000000000000e+02 }
            -
               depth: 5
               value: 0.
               norm_class_idx: 0
            -
               depth: 5
               value: 0.
               norm_class_idx: 0
            -
               depth: 2
               value: 4.
               norm_class_idx: 4
               splits:
                  - { var:1, quality:2.8512535156250000e+04,
                      le:1.8250000000000000e+02 }
            -
               depth: 3
               value: 4.
               norm_class_idx: 4
               splits:
                  - { var:0, quality:1.8608636718750000e+04,
                      le:1.8650000000000000e+02 }
            -
               depth: 4
               value: 4.
               norm_class_idx: 4
               splits:
                  - { var:0, quality:1.0767631835937500e+04,
                      le:1.8450000000000000e+02 }
            -
               depth: 5
               value: 4.
               norm_class_idx: 4
            -
               depth: 5
               value: 4.
               norm_class_idx: 4
            -
               depth: 4
               value: 0.
               norm_class_idx: 0
               splits:
                  - { var:3, quality:8.7339277343750000e+03,
                      le:1.7950000000000000e+02 }
            -
               depth: 5
               value: 4.
               norm_class_idx: 4
            -
               depth: 5
               value: 0.
               norm_class_idx: 0
            -
               depth: 3
               value: 4.
               norm_class_idx: 4
               splits:
                  - { var:2, quality:1.7329730468750000e+04,
                      le:1.6250000000000000e+02 }
            -
               depth: 4
               value: 3.
               norm_class_idx: 3
               splits:
                  - { var:3, quality:1.8758332824707031e+02, le:200. }
            -
               depth: 5
               value: 4.
               norm_class_idx: 4
            -
               depth: 5
               value: 3.
               norm_class_idx: 3
            -
               depth: 4
               value: 4.
               norm_class_idx: 4
               splits:
                  - { var:2, quality:1.7201199218750000e+04,
                      le:1.7550000000000000e+02 }
            -
               depth: 5
               value: 4.
               norm_class_idx: 4
            -
               depth: 5
               value: 4.
               norm_class_idx: 4
      -
         nodes:
            -
               depth: 0
               value: 0.
               norm_class_idx: 0
               splits:
                  - { var:0, quality:9.1988750000000000e+04,
                      le:1.4550000000000000e+02 }
            -
               depth: 1
               value: 5.
               norm_class_idx: 5
               splits:
                  - { var:2, quality:7.1475132812500000e+04,
                      le:6.4500000000000000e+01 }
            -
               depth: 2
               value: 5.
               norm_class_idx: 5
               splits:
                  - { var:3, quality:3.9169781250000000e+04,
                      le:1.4050000000000000e+02 }
            -
               depth: 3
               value: 5.
               norm_class_idx: 5
               splits:
                  - { var:0, quality:2.8226988281250000e+04,
                      le:5.2500000000000000e+01 }
            -
               depth: 4
               value: 5.
               norm_class_idx: 5
               splits:
                  - { var:0, quality:2.6492402343750000e+04,
                      le:4.7500000000000000e+01 }
            -
               depth: 5
               value: 5.
               norm_class_idx: 5
            -
               depth: 5
               value: 5.
               norm_class_idx: 5
            -
               depth: 4
               value: 4.
               norm_class_idx: 4
               splits:
                  - { var:3, quality:2.7228469238281250e+03,
                      le:1.3350000000000000e+02 }
            -
               depth: 5
               value: 4.
               norm_class_idx: 4
            -
               depth: 5
               value: 5.
               norm_class_idx: 5
            -
               depth: 3
               value: 3.
               norm_class_idx: 3
               splits:
                  - { var:1, quality:1.6172950195312500e+04,
                      le:7.0500000000000000e+01 }
            -
               depth: 4
               value: 3.
               norm_class_idx: 3
               splits:
                  - { var:0, quality:1.4091763671875000e+04,
                      le:4.4500000000000000e+01 }
            -
               depth: 5
               value: 5.
               norm_class_idx: 5
            -
               depth: 5
               value: 3.
               norm_class_idx: 3
            -
               depth: 4
               value: 5.
               norm_class_idx: 5
               splits:
                  - { var:1, quality:3.4448496093750000e+03,
                      le:7.3500000000000000e+01 }
            -
               depth: 5
               value: 5.
               norm_class_idx: 5
            -
               depth: 5
               value: 5.
               norm_class_idx: 5
            -
               depth: 2
               value: 1.
               norm_class_idx: 1
               splits:
                  - { var:1, quality:6.0914507812500000e+04,
                      le:1.4150000000000000e+02 }
            -
               depth: 3
               value: 1.
               norm_class_idx: 1
               splits:
                  - { var:0, quality:5.4265250000000000e+04,
                      le:7.7500000000000000e+01 }
            -
               depth: 4
               value: 2.
               norm_class_idx: 2
               splits:
                  - { var:1, quality:2.3653462890625000e+04,
                      le:1.0050000000000000e+02 }
            -
               depth: 5
               value: 2.
               norm_class_idx: 2
            -
               depth: 5
               value: 1.
               norm_class_idx: 1
            -
               depth: 4
               value: 1.
               norm_class_idx: 1
               splits:
                  - { var:0, quality:3.7821906250000000e+04,
                      le:1.2050000000000000e+02 }
            -
               depth: 5
               value: 1.
               norm_class_idx: 1
            -
               depth: 5
               value: 4.
               norm_class_idx: 4
            -
               depth: 3
               value: 3.
               norm_class_idx: 3
               splits:
                  - { var:3, quality:2.2255109375000000e+04,
                      le:2.0150000000000000e+02 }
            -
               depth: 4
               value: 1.
               norm_class_idx: 1
               splits:
                  - { var:2, quality:4.0512420654296875e+02,
                      le:1.0850000000000000e+02 }
            -
               depth: 5
               value: 3.
               norm_class_idx: 3
            -
               depth: 5
               value: 1.
               norm_class_idx: 1
            -
               depth: 4
               value: 3.
               norm_class_idx: 3
               splits:
                  - { var:0, quality:2.2091162109375000e+04,
                      le:1.2150000000000000e+02 }
            -
               depth: 5
               value: 3.
               norm_class_idx: 3
            -
               depth: 5
               value: 3.
               norm_class_idx: 3
            -
               depth: 1
               value: 0.
               norm_class_idx: 0
               splits:
                  - { var:3, quality:6.7053648437500000e+04,
                      le:1.2350000000000000e+02 }
            -
               depth: 2
               value: 0.
               norm_class_idx: 0
               splits:
                  - { var:3, quality:4.2170726562500000e+04,
                      le:1.1650000000000000e+02 }
            -
               depth: 3
               value: 0.
               norm_class_idx: 0
               splits:
                  - { var:3, quality:4.1838171875000000e+04,
                      le:1.1150000000000000e+02 }
            -
               depth: 4
               value: 0.
               norm_class_idx: 0
               splits:
                  - { var:0, quality:4.0186203125000000e+04,
                      le:1.4750000000000000e+02 }
            -
               depth: 5
               value: 0.
               norm_class_idx: 0
            -
               depth: 5
               value: 0.
               norm_class_idx: 0
            -
               depth: 4
               value: 0.
               norm_class_idx: 0
               splits:
                  - { var:0, quality:1.8419007568359375e+03,
                      le:1.5250000000000000e+02 }
            -
               depth: 5
               value: 2.
               norm_class_idx: 2
            -
               depth: 5
               value: 0.
               norm_class_idx: 0
            -
               depth: 3
               value: 0.
               norm_class_idx: 0
               splits:
                  - { var:0, quality:7.1492565917968750e+02,
                      le:1.6450000000000000e+02 }
            -
               depth: 4
               value: 2.
               norm_class_idx: 2
               splits:
                  - { var:0, quality:3.5480572509765625e+02,
                      le:1.6250000000000000e+02 }
            -
               depth: 5
               value: 2.
               norm_class_idx: 2
            -
               depth: 5
               value: 2.
               norm_class_idx: 2
            -
               depth: 4
               value: 0.
               norm_class_idx: 0
               splits:
                  - { var:3, quality:3.6493023681640625e+02,
                      le:1.2150000000000000e+02 }
            -
               depth: 5
               value: 0.
               norm_class_idx: 0
            -
               depth: 5
               value: 0.
               norm_class_idx: 0
            -
               depth: 2
               value: 4.
               norm_class_idx: 4
               splits:
                  - { var:2, quality:2.8555994140625000e+04,
                      le:1.7250000000000000e+02 }
            -
               depth: 3
               value: 4.
               norm_class_idx: 4
               splits:
                  - { var:2, quality:1.7475947265625000e+04,
                      le:1.6150000000000000e+02 }
            -
               depth: 4
               value: 4.
               norm_class_idx: 4
               splits:
                  - { var:3, quality:1.1109143554687500e+04,
                      le:1.9550000000000000e+02 }
            -
               depth: 5
               value: 4.
               norm_class_idx: 4
            -
               depth: 5
               value: 3.
               norm_class_idx: 3
            -
               depth: 4
               value: 0.
               norm_class_idx: 0
               splits:
                  - { var:0, quality:8.7727304687500000e+03,
                      le:1.8650000000000000e+02 }
            -
               depth: 5
               value: 4.
               norm_class_idx: 4
            -
               depth: 5
               value: 0.
               norm_class_idx: 0
            -
               depth: 3
               value: 4.
               norm_class_idx: 4
               splits:
                  - { var:2, quality:1.6866050781250000e+04,
                      le:1.7350000000000000e+02 }
            -
               depth: 4
               value: 4.
               norm_class_idx: 4
               splits:
                  - { var:3, quality:2.7983477783203125e+02,
                      le:1.8050000000000000e+02 }
            -
               depth: 5
               value: 4.
               norm_class_idx: 4
            -
               depth: 5
               value: 4.
               norm_class_idx: 4
            -
               depth: 4
               value: 4.
               norm_class_idx: 4
               splits:
                  - { var:1, quality:1.6599759765625000e+04,
                      le:1.8350000000000000e+02 }
            -
               depth: 5
               value: 4.
               norm_class_idx: 4
            -
               depth: 5
               value: 4.
               norm_class_idx: 4
      -
         nodes:
            -
               depth: 0
               value: 4.
               norm_class_idx: 4
               splits:
                  - { var:0, quality:9.1779726562500000e+04,
                      le:1.4550000000000000e+02 }
            -
               depth: 1
               value: 5.
               norm_class_idx: 5
               splits:
                  - { var:0, quality:7.2798546875000000e+04,
                      le:7.5500000000000000e+01 }
            -
               depth: 2
               value: 5.
               norm_class_idx: 5
               splits:
                  - { var:2, quality:5.2706585937500000e+04,
                      le:6.3500000000000000e+01 }
            -
               depth: 3
               value: 5.
               norm_class_idx: 5
               splits:
                  - { var:3, quality:4.0204871093750000e+04,
                      le:1.4050000000000000e+02 }
            -
               depth: 4
               value: 5.
               norm_class_idx: 5
               splits:
                  - { var:0, quality:2.7588691406250000e+04,
                      le:5.0500000000000000e+01 }
            -
               depth: 5
               value: 5.
               norm_class_idx: 5
            -
               depth: 5
               value: 5.
               norm_class_idx: 5
            -
               depth: 4
               value: 3.
               norm_class_idx: 3
               splits:
                  - { var:1, quality:1.5808439453125000e+04,
                      le:7.0500000000000000e+01 }
            -
               depth: 5
               value: 3.
               norm_class_idx: 3
            -
               depth: 5
               value: 5.
               norm_class_idx: 5
            -
               depth: 3
               value: 2.
               norm_class_idx: 2
               splits:
                  - { var:3, quality:2.2750482421875000e+04,
                      le:1.2350000000000000e+02 }
            -
               depth: 4
               value: 5.
               norm_class_idx: 5
               splits:
                  - { var:0, quality:2.2909162597656250e+03,
                      le:5.3500000000000000e+01 }
            -
               depth: 5
               value: 5.
               norm_class_idx: 5
            -
               depth: 5
               value: 5.
               norm_class_idx: 5
            -
               depth: 4
               value: 2.
               norm_class_idx: 2
               splits:
                  - { var:3, quality:2.1931033203125000e+04,
                      le:1.8850000000000000e+02 }
            -
               depth: 5
               value: 2.
               norm_class_idx: 2
            -
               depth: 5
               value: 1.
               norm_class_idx: 1
            -
               depth: 2
               value: 1.
               norm_class_idx: 1
               splits:
                  - { var:1, quality:5.5267574218750000e+04,
                      le:1.4150000000000000e+02 }
            -
               depth: 3
               value: 1.
               norm_class_idx: 1
               splits:
                  - { var:3, quality:4.3451480468750000e+04,
                      le:1.8550000000000000e+02 }
            -
               depth: 4
               value: 1.
               norm_class_idx: 1
               splits:
                  - { var:3, quality:2.3167888671875000e+04,
                      le:1.1950000000000000e+02 }
            -
               depth: 5
               value: 2.
               norm_class_idx: 2
            -
               depth: 5
               value: 1.
               norm_class_idx: 1
            -
               depth: 4
               value: 1.
               norm_class_idx: 1
               splits:
                  - { var:1, quality:2.6294251953125000e+04,
                      le:1.0250000000000000e+02 }
            -
               depth: 5
               value: 2.
               norm_class_idx: 2
            -
               depth: 5
               value: 1.
               norm_class_idx: 1
            -
               depth: 3
               value: 3.
               norm_class_idx: 3
               splits:
                  - { var:2, quality:2.1982976562500000e+04,
                      le:1.1550000000000000e+02 }
            -
               depth: 4
               value: 3.
               norm_class_idx: 3
               splits:
                  - { var:3, quality:1.9279097656250000e+04,
                      le:1.7850000000000000e+02 }
            -
               depth: 5
               value: 4.
               norm_class_idx: 4
            -
               depth: 5
               value: 3.
               norm_class_idx: 3
            -
               depth: 4
               value: 3.
               norm_class_idx: 3
               splits:
                  - { var:3, quality:3.2994824218750000e+03,
                      le:2.0650000000000000e+02 }
            -
               depth: 5
               value: 1.
               norm_class_idx: 1
            -
               depth: 5
               value: 3.
               norm_class_idx: 3
            -
               depth: 1
               value: 0.
               norm_class_idx: 0
               splits:
                  - { var:1, quality:6.0173015625000000e+04,
                      le:1.8150000000000000e+02 }
            -
               depth: 2
               value: 0.
               norm_class_idx: 0
               splits:
                  - { var:3, quality:5.2848179687500000e+04,
                      le:1.2150000000000000e+02 }
            -
               depth: 3
               value: 0.
               norm_class_idx: 0
               splits:
                  - { var:0, quality:4.1641269531250000e+04,
                      le:1.4750000000000000e+02 }
            -
               depth: 4
               value: 0.
               norm_class_idx: 0
               splits:
                  - { var:2, quality:4.3111770629882812e+02,
                      le:1.2750000000000000e+02 }
            -
               depth: 5
               value: 0.
               norm_class_idx: 0
            -
               depth: 5
               value: 2.
               norm_class_idx: 2
            -
               depth: 4
               value: 0.
               norm_class_idx: 0
               splits:
                  - { var:3, quality:4.1465140625000000e+04,
                      le:1.1650000000000000e+02 }
            -
               depth: 5
               value: 0.
               norm_class_idx: 0
            -
               depth: 5
               value: 0.
               norm_class_idx: 0
            -
               depth: 3
               value: 4.
               norm_class_idx: 4
               splits:
                  - { var:3, quality:1.8233744140625000e+04,
                      le:1.7950000000000000e+02 }
            -
               depth: 4
               value: 4.
               norm_class_idx: 4
               splits:
                  - { var:3, quality:1.1271115234375000e+04,
                      le:1.3450000000000000e+02 }
            -
               depth: 5
               value: 2.
               norm_class_idx: 2
            -
               depth: 5
               value: 4.
               norm_class_idx: 4
            -
               depth: 4
               value: 0.
               norm_class_idx: 0
               splits:
                  - { var:2, quality:8.5253056640625000e+03,
                      le:1.5950000000000000e+02 }
            -
               depth: 5
               value: 3.
               norm_class_idx: 3
            -
               depth: 5
               value: 0.
               norm_class_idx: 0
            -
               depth: 2
               value: 4.
               norm_class_idx: 4
               splits:
                  - { var:0, quality:1.7768480468750000e+04,
                      le:1.7650000000000000e+02 }
            -
               depth: 3
               value: 3.
               norm_class_idx: 3
               splits:
                  - { var:0, quality:1.4681025695800781e+02,
                      le:1.7150000000000000e+02 }
            -
               depth: 4
               value: 3.
               norm_class_idx: 3
               splits:
                  - { var:2, quality:1.2641600036621094e+02,
                      le:1.5650000000000000e+02 }
            -
               depth: 5
               value: 3.
               norm_class_idx: 3
            -
               depth: 5
               value: 1.
               norm_class_idx: 1
            -
               depth: 4
               value: 3.
               norm_class_idx: 3
               splits:
                  - { var:2, quality:4.2098682403564453e+01,
                      le:1.6250000000000000e+02 }
            -
               depth: 5
               value: 3.
               norm_class_idx: 3
            -
               depth: 5
               value: 4.
               norm_class_idx: 4
            -
               depth: 3
               value: 4.
               norm_class_idx: 4
               splits:
                  - { var:2, quality:1.7693644531250000e+04,
                      le:1.7350000000000000e+02 }
            -
               depth: 4
               value: 4.
               norm_class_idx: 4
               splits:
                  - { var:1, quality:1.1693255615234375e+03,
                      le:1.8250000000000000e+02 }
            -
               depth: 5
               value: 4.
               norm_class_idx: 4
            -
               depth: 5
               value: 4.
               norm_class_idx: 4
            -
               depth: 4
               value: 4.
               norm_class_idx: 4
               splits:
                  - { var:3, quality:1.6582185546875000e+04, le:234. }
            -
               depth: 5
               value: 4.
               norm_class_idx: 4
            -
               depth: 5
               value: 1.
               norm_class_idx: 1
      -
         nodes:
            -
               depth: 0
               value: 3.
               norm_class_idx: 3
               splits:
                  - { var:1, quality:8.0519335937500000e+04,
                      le:1.3250000000000000e+02 }
            -
               depth: 1
               value: 5.
               norm_class_idx: 5
               splits:
                  - { var:2, quality:6.8612570312500000e+04,
                      le:6.4500000000000000e+01 }
            -
               depth: 2
               value: 5.
               norm_class_idx: 5
               splits:
                  - { var:1, quality:3.9070375000000000e+04,
                      le:5.5500000000000000e+01 }
            -
               depth: 3
               value: 5.
               norm_class_idx: 5
               splits:
                  - { var:0, quality:2.3998416015625000e+04,
                      le:4.5500000000000000e+01 }
            -
               depth: 4
               value: 5.
               norm_class_idx: 5
               splits:
                  - { var:1, quality:2.3460441406250000e+04,
                      le:5.2500000000000000e+01 }
            -
               depth: 5
               value: 5.
               norm_class_idx: 5
            -
               depth: 5
               value: 5.
               norm_class_idx: 5
            -
               depth: 4
               value: 5.
               norm_class_idx: 5
               splits:
                  - { var:2, quality:6.1210809326171875e+02,
                      le:4.6500000000000000e+01 }
            -
               depth: 5
               value: 3.
               norm_class_idx: 3
            -
               depth: 5
               value: 5.
               norm_class_idx: 5
            -
               depth: 3
               value: 3.
               norm_class_idx: 3
               splits:
                  - { var:3, quality:1.8859625000000000e+04,
                      le:1.3950000000000000e+02 }
            -
               depth: 4
               value: 5.
               norm_class_idx: 5
               splits:
                  - { var:0, quality:6.7906254882812500e+03,
                      le:6.5500000000000000e+01 }
            -
               depth: 5
               value: 5.
               norm_class_idx: 5
            -
               depth: 5
               value: 4.
               norm_class_idx: 4
            -
               depth: 4
               value: 3.
               norm_class_idx: 3
               splits:
                  - { var:1, quality:1.6119131835937500e+04,
                      le:7.0500000000000000e+01 }
            -
               depth: 5
               value: 3.
               norm_class_idx: 3
            -
               depth: 5
               value: 5.
               norm_class_idx: 5
            -
               depth: 2
               value: 1.
               norm_class_idx: 1
               splits:
                  - { var:3, quality:5.2213265625000000e+04,
                      le:1.8650000000000000e+02 }
            -
               depth: 3
               value: 2.
               norm_class_idx: 2
               splits:
                  - { var:0, quality:3.9263351562500000e+04,
                      le:8.1500000000000000e+01 }
            -
               depth: 4
               value: 2.
               norm_class_idx: 2
               splits:
                  - { var:1, quality:2.5274572265625000e+04,
                      le:7.3500000000000000e+01 }
            -
               depth: 5
               value: 5.
               norm_class_idx: 5
            -
               depth: 5
               value: 2.
               norm_class_idx: 2
            -
               depth: 4
               value: 1.
               norm_class_idx: 1
               splits:
                  - { var:1, quality:1.9619039062500000e+04,
                      le:1.0550000000000000e+02 }
            -
               depth: 5
               value: 4.
               norm_class_idx: 4
            -
               depth: 5
               value: 1.
               norm_class_idx: 1
            -
               depth: 3
               value: 1.
               norm_class_idx: 1
               splits:
                  - { var:3, quality:2.5210191406250000e+04,
                      le:1.9050000000000000e+02 }
            -
               depth: 4
               value: 1.
               norm_class_idx: 1
               splits:
                  - { var:0, quality:1.4454945068359375e+03,
                      le:9.5500000000000000e+01 }
            -
               depth: 5
               value: 1.
               norm_class_idx: 1
            -
               depth: 5
               value: 1.
               norm_class_idx: 1
            -
               depth: 4
               value: 1.
               norm_class_idx: 1
               splits:
                  - { var:2, quality:2.4163917968750000e+04,
                      le:1.0650000000000000e+02 }
            -
               depth: 5
               value: 1.
               norm_class_idx: 1
            -
               depth: 5
               value: 1.
               norm_class_idx: 1
            -
               depth: 1
               value: 0.
               norm_class_idx: 0
               splits:
                  - { var:0, quality:6.2047402343750000e+04,
                      le:1.4450000000000000e+02 }
            -
               depth: 2
               value: 3.
               norm_class_idx: 3
               splits:
                  - { var:3, quality:2.3829144531250000e+04,
                      le:2.0450000000000000e+02 }
            -
               depth: 3
               value: 1.
               norm_class_idx: 1
               splits:
                  - { var:2, quality:3.2387402343750000e+03,
                      le:1.0350000000000000e+02 }
            -
               depth: 4
               value: 3.
               norm_class_idx: 3
               splits:
                  - { var:3, quality:8.4988934326171875e+02, le:184. }
            -
               depth: 5
               value: 1.
               norm_class_idx: 1
            -
               depth: 5
               value: 3.
               norm_class_idx: 3
            -
               depth: 4
               value: 1.
               norm_class_idx: 1
               splits:
                  - { var:3, quality:3.6584443359375000e+03,
                      le:1.3850000000000000e+02 }
            -
               depth: 5
               value: 2.
               norm_class_idx: 2
            -
               depth: 5
               value: 1.
               norm_class_idx: 1
            -
               depth: 3
               value: 3.
               norm_class_idx: 3
               splits:
                  - { var:2, quality:2.1538091796875000e+04,
                      le:1.1350000000000000e+02 }
            -
               depth: 4
               value: 3.
               norm_class_idx: 3
               splits:
                  - { var:2, quality:1.7806857421875000e+04,
                      le:1.0350000000000000e+02 }
            -
               depth: 5
               value: 3.
               norm_class_idx: 3
            -
               depth: 5
               value: 3.
               norm_class_idx: 3
            -
               depth: 4
               value: 3.
               norm_class_idx: 3
               splits:
                  - { var:2, quality:3.8513977050781250e+03,
                      le:1.2850000000000000e+02 }
            -
               depth: 5
               value: 3.
               norm_class_idx: 3
            -
               depth: 5
               value: 2.
               norm_class_idx: 2
            -
               depth: 2
               value: 0.
               norm_class_idx: 0
               splits:
                  - { var:3, quality:6.6035953125000000e+04,
                      le:1.2450000000000000e+02 }
            -
               depth: 3
               value: 0.
               norm_class_idx: 0
               splits:
                  - { var:0, quality:4.1295949218750000e+04,
                      le:1.4650000000000000e+02 }
            -
               depth: 4
               value: 2.
               norm_class_idx: 2
               splits:
                  - { var:2, quality:1.6199656677246094e+02,
                      le:1.2550000000000000e+02 }
            -
               depth: 5
               value: 0.
               norm_class_idx: 0
            -
               depth: 5
               value: 2.
               norm_class_idx: 2
            -
               depth: 4
               value: 0.
               norm_class_idx: 0
               splits:
                  - { var:3, quality:4.1488046875000000e+04,
                      le:1.1650000000000000e+02 }
            -
               depth: 5
               value: 0.
               norm_class_idx: 0
            -
               depth: 5
               value: 0.
               norm_class_idx: 0
            -
               depth: 3
               value: 4.
               norm_class_idx: 4
               splits:
                  - { var:1, quality:2.8308458984375000e+04,
                      le:1.8250000000000000e+02 }
            -
               depth: 4
               value: 4.
               norm_class_idx: 4
               splits:
                  - { var:3, quality:1.8245250000000000e+04,
                      le:1.7950000000000000e+02 }
            -
               depth: 5
               value: 4.
               norm_class_idx: 4
            -
               depth: 5
               value: 0.
               norm_class_idx: 0
            -
               depth: 4
               value: 4.
               norm_class_idx: 4
               splits:
                  - { var:0, quality:1.7343265625000000e+04,
                      le:1.8050000000000000e+02 }
            -
               depth: 5
               value: 3.
               norm_class_idx: 3
            -
               depth: 5
               value: 4.
               norm_class_idx: 4
      -
         nodes:
            -
               depth: 0
               value: 4.
               norm_class_idx: 4
               splits:
                  - { var:2, quality:8.8253609375000000e+04,
                      le:1.1750000000000000e+02 }
            -
               depth: 1
               value: 5.
               norm_class_idx: 5
               splits:
                  - { var:1, quality:7.2438500000000000e+04,
                      le:1.0250000000000000e+02 }
            -
               depth: 2
               value: 5.
               norm_class_idx: 5
               splits:
                  - { var:2, quality:5.3995355468750000e+04,
                      le:6.2500000000000000e+01 }
            -
               depth: 3
               value: 5.
               norm_class_idx: 5
               splits:
                  - { var:0, quality:3.9306632812500000e+04,
                      le:4.5500000000000000e+01 }
            -
               depth: 4
               value: 5.
               norm_class_idx: 5
               splits:
                  - { var:0, quality:2.5504986328125000e+04,
                      le:4.3500000000000000e+01 }
            -
               depth: 5
               value: 5.
               norm_class_idx: 5
            -
               depth: 5
               value: 5.
               norm_class_idx: 5
            -
               depth: 4
               value: 3.
               norm_class_idx: 3
               splits:
                  - { var:3, quality:1.6583644531250000e+04,
                      le:1.3950000000000000e+02 }
            -
               depth: 5
               value: 5.
               norm_class_idx: 5
            -
               depth: 5
               value: 3.
               norm_class_idx: 3
            -
               depth: 3
               value: 2.
               norm_class_idx: 2
               splits:
                  - { var:0, quality:3.1054519531250000e+04,
                      le:8.2500000000000000e+01 }
            -
               depth: 4
               value: 2.
               norm_class_idx: 2
               splits:
                  - { var:3, quality:2.6908492187500000e+04,
                      le:1.2150000000000000e+02 }
            -
               depth: 5
               value: 5.
               norm_class_idx: 5
            -
               depth: 5
               value: 2.
               norm_class_idx: 2
            -
               depth: 4
               value: 4.
               norm_class_idx: 4
               splits:
                  - { var:1, quality:7.9787700195312500e+03,
                      le:9.4500000000000000e+01 }
            -
               depth: 5
               value: 4.
               norm_class_idx: 4
            -
               depth: 5
               value: 3.
               norm_class_idx: 3
            -
               depth: 2
               value: 1.
               norm_class_idx: 1
               splits:
                  - { var:1, quality:5.5968554687500000e+04,
                      le:1.4050000000000000e+02 }
            -
               depth: 3
               value: 1.
               norm_class_idx: 1
               splits:
                  - { var:3, quality:4.4829929687500000e+04,
                      le:1.2350000000000000e+02 }
            -
               depth: 4
               value: 2.
               norm_class_idx: 2
               splits:
                  - { var:0, quality:8.3089707031250000e+03,
                      le:1.4350000000000000e+02 }
            -
               depth: 5
               value: 2.
               norm_class_idx: 2
            -
               depth: 5
               value: 0.
               norm_class_idx: 0
            -
               depth: 4
               value: 1.
               norm_class_idx: 1
               splits:
                  - { var:0, quality:4.4532398437500000e+04,
                      le:1.2250000000000000e+02 }
            -
               depth: 5
               value: 1.
               norm_class_idx: 1
            -
               depth: 5
               value: 4.
               norm_class_idx: 4
            -
               depth: 3
               value: 3.
               norm_class_idx: 3
               splits:
                  - { var:1, quality:2.0490462890625000e+04,
                      le:1.4350000000000000e+02 }
            -
               depth: 4
               value: 3.
               norm_class_idx: 3
               splits:
                  - { var:0, quality:1.3233465576171875e+03,
                      le:1.1250000000000000e+02 }
            -
               depth: 5
               value: 3.
               norm_class_idx: 3
            -
               depth: 5
               value: 1.
               norm_class_idx: 1
            -
               depth: 4
               value: 3.
               norm_class_idx: 3
               splits:
                  - { var:2, quality:1.9588478515625000e+04,
                      le:1.1550000000000000e+02 }
            -
               depth: 5
               value: 3.
               norm_class_idx: 3
            -
               depth: 5
               value: 3.
               norm_class_idx: 3
            -
               depth: 1
               value: 0.
               norm_class_idx: 0
               splits:
                  - { var:3, quality:6.4763023437500000e+04,
                      le:1.2150000000000000e+02 }
            -
               depth: 2
               value: 0.
               norm_class_idx: 0
               splits:
                  - { var:3, quality:4.0758281250000000e+04,
                      le:1.1350000000000000e+02 }
            -
               depth: 3
               value: 0.
               norm_class_idx: 0
               splits:
                  - { var:3, quality:3.9881687500000000e+04,
                      le:1.0850000000000000e+02 }
            -
               depth: 4
               value: 0.
               norm_class_idx: 0
               splits:
                  - { var:0, quality:3.7409730468750000e+04,
                      le:1.4450000000000000e+02 }
            -
               depth: 5
               value: 2.
               norm_class_idx: 2
            -
               depth: 5
               value: 0.
               norm_class_idx: 0
            -
               depth: 4
               value: 0.
               norm_class_idx: 0
               splits:
                  - { var:0, quality:3.5597548828125000e+03,
                      le:1.5050000000000000e+02 }
            -
               depth: 5
               value: 2.
               norm_class_idx: 2
            -
               depth: 5
               value: 0.
               norm_class_idx: 0
            -
               depth: 3
               value: 0.
               norm_class_idx: 0
               splits:
                  - { var:0, quality:1.7873295898437500e+03,
                      le:1.5650000000000000e+02 }
            -
               depth: 4
               value: 2.
               norm_class_idx: 2
               splits:
                  - { var:0, quality:8.0196594238281250e+02,
                      le:1.5550000000000000e+02 }
            -
               depth: 5
               value: 2.
               norm_class_idx: 2
            -
               depth: 5
               value: 2.
               norm_class_idx: 2
            -
               depth: 4
               value: 0.
               norm_class_idx: 0
               splits:
                  - { var:3, quality:9.9530462646484375e+02,
                      le:1.1650000000000000e+02 }
            -
               depth: 5
               value: 0.
               norm_class_idx: 0
            -
               depth: 5
               value: 0.
               norm_class_idx: 0
            -
               depth: 2
               value: 4.
               norm_class_idx: 4
               splits:
                  - { var:1, quality:2.8434503906250000e+04,
                      le:1.8250000000000000e+02 }
            -
               depth: 3
               value: 4.
               norm_class_idx: 4
               splits:
                  - { var:0, quality:1.7894994140625000e+04,
                      le:1.8650000000000000e+02 }
            -
               depth: 4
               value: 4.
               norm_class_idx: 4
               splits:
                  - { var:3, quality:1.4656105468750000e+04,
                      le:1.9250000000000000e+02 }
            -
               depth: 5
               value: 4.
               norm_class_idx: 4
            -
               depth: 5
               value: 3.
               norm_class_idx: 3
            -
               depth: 4
               value: 0.
               norm_class_idx: 0
               splits:
                  - { var:2, quality:8.2846279296875000e+03,
                      le:1.7150000000000000e+02 }
            -
               depth: 5
               value: 0.
               norm_class_idx: 0
            -
               depth: 5
               value: 4.
               norm_class_idx: 4
            -
               depth: 3
               value: 4.
               norm_class_idx: 4
               splits:
                  - { var:2, quality:1.7536173828125000e+04,
                      le:1.6150000000000000e+02 }
            -
               depth: 4
               value: 3.
               norm_class_idx: 3
               splits:
                  - { var:0, quality:1.5060334777832031e+02,
                      le:1.8650000000000000e+02 }
            -
               depth: 5
               value: 3.
               norm_class_idx: 3
            -
               depth: 5
               value: 4.
               norm_class_idx: 4
            -
               depth: 4
               value: 4.
               norm_class_idx: 4
               splits:
                  - { var:2, quality:1.7415218750000000e+04,
                      le:1.7450000000000000e+02 }
            -
               depth: 5
               value: 4.
               norm_class_idx: 4
            -
               depth: 5
               value: 4.
               norm_class_idx: 4
      -
         nodes:
            -
               depth: 0
               value: 2.
               norm_class_idx: 2
               splits:
                  - { var:0, quality:9.1765703125000000e+04,
                      le:1.4450000000000000e+02 }
            -
               depth: 1
               value: 5.
               norm_class_idx: 5
               splits:
                  - { var:1, quality:7.3461085937500000e+04,
                      le:1.0050000000000000e+02 }
            -
               depth: 2
               value: 5.
               norm_class_idx: 5
               splits:
                  - { var:2, quality:5.3445585937500000e+04,
                      le:6.2500000000000000e+01 }
            -
               depth: 3
               value: 5.
               norm_class_idx: 5
               splits:
                  - { var:3, quality:3.9089640625000000e+04,
                      le:1.4050000000000000e+02 }
            -
               depth: 4
               value: 5.
               norm_class_idx: 5
               splits:
                  - { var:1, quality:2.7074716796875000e+04,
                      le:6.3500000000000000e+01 }
            -
               depth: 5
               value: 5.
               norm_class_idx: 5
            -
               depth: 5
               value: 4.
               norm_class_idx: 4
            -
               depth: 4
               value: 3.
               norm_class_idx: 3
               splits:
                  - { var:1, quality:1.5348786132812500e+04,
                      le:6.9500000000000000e+01 }
            -
               depth: 5
               value: 3.
               norm_class_idx: 3
            -
               depth: 5
               value: 5.
               norm_class_idx: 5
            -
               depth: 3
               value: 2.
               norm_class_idx: 2
               splits:
                  - { var:1, quality:2.4005218750000000e+04,
                      le:6.9500000000000000e+01 }
            -
               depth: 4
               value: 5.
               norm_class_idx: 5
               splits:
                  - { var:0, quality:2.1089980468750000e+03,
                      le:5.4500000000000000e+01 }
            -
               depth: 5
               value: 5.
               norm_class_idx: 5
            -
               depth: 5
               value: 5.
               norm_class_idx: 5
            -
               depth: 4
               value: 2.
               norm_class_idx: 2
               splits:
                  - { var:0, quality:3.0356923828125000e+04,
                      le:8.1500000000000000e+01 }
            -
               depth: 5
               value: 2.
               norm_class_idx: 2
            -
               depth: 5
               value: 4.
               norm_class_idx: 4
            -
               depth: 2
               value: 1.
               norm_class_idx: 1
               splits:
                  - { var:1, quality:5.7091035156250000e+04,
                      le:1.4050000000000000e+02 }
            -
               depth: 3
               value: 1.
               norm_class_idx: 1
               splits:
                  - { var:3, quality:4.6079953125000000e+04,
                      le:1.2350000000000000e+02 }
            -
               depth: 4
               value: 2.
               norm_class_idx: 2
               splits:
                  - { var:3, quality:9.0034072265625000e+03,
                      le:1.2150000000000000e+02 }
            -
               depth: 5
               value: 2.
               norm_class_idx: 2
            -
               depth: 5
               value: 2.
               norm_class_idx: 2
            -
               depth: 4
               value: 1.
               norm_class_idx: 1
               splits:
                  - { var:3, quality:4.0412027343750000e+04,
                      le:1.8250000000000000e+02 }
            -
               depth: 5
               value: 1.
               norm_class_idx: 1
            -
               depth: 5
               value: 1.
               norm_class_idx: 1
            -
               depth: 3
               value: 3.
               norm_class_idx: 3
               splits:
                  - { var:1, quality:2.1812003906250000e+04,
                      le:1.4450000000000000e+02 }
            -
               depth: 4
               value: 3.
               norm_class_idx: 3
               splits:
                  - { var:0, quality:1.9668005371093750e+03,
                      le:1.1450000000000000e+02 }
            -
               depth: 5
               value: 3.
               norm_class_idx: 3
            -
               depth: 5
               value: 1.
               norm_class_idx: 1
            -
               depth: 4
               value: 3.
               norm_class_idx: 3
               splits:
                  - { var:3, quality:2.0760703125000000e+04,
                      le:2.0150000000000000e+02 }
            -
               depth: 5
               value: 3.
               norm_class_idx: 3
            -
               depth: 5
               value: 3.
               norm_class_idx: 3
            -
               depth: 1
               value: 0.
               norm_class_idx: 0
               splits:
                  - { var:3, quality:6.7428789062500000e+04,
                      le:1.2350000000000000e+02 }
            -
               depth: 2
               value: 0.
               norm_class_idx: 0
               splits:
                  - { var:2, quality:4.1612792968750000e+04,
                      le:1.3150000000000000e+02 }
            -
               depth: 3
               value: 0.
               norm_class_idx: 0
               splits:
                  - { var:3, quality:3.9628421875000000e+04,
                      le:1.1550000000000000e+02 }
            -
               depth: 4
               value: 0.
               norm_class_idx: 0
               splits:
                  - { var:0, quality:3.9553835937500000e+04,
                      le:1.4650000000000000e+02 }
            -
               depth: 5
               value: 0.
               norm_class_idx: 0
            -
               depth: 5
               value: 0.
               norm_class_idx: 0
            -
               depth: 4
               value: 2.
               norm_class_idx: 2
               splits:
                  - { var:3, quality:1.2444589233398438e+02,
                      le:1.1650000000000000e+02 }
            -
               depth: 5
               value: 0.
               norm_class_idx: 0
            -
               depth: 5
               value: 2.
               norm_class_idx: 2
            -
               depth: 3
               value: 0.
               norm_class_idx: 0
               splits:
                  - { var:0, quality:2.4929462890625000e+03,
                      le:1.5550000000000000e+02 }
            -
               depth: 4
               value: 2.
               norm_class_idx: 2
               splits:
                  - { var:2, quality:3.0035348510742188e+02,
                      le:1.3250000000000000e+02 }
            -
               depth: 5
               value: 0.
               norm_class_idx: 0
            -
               depth: 5
               value: 2.
               norm_class_idx: 2
            -
               depth: 4
               value: 0.
               norm_class_idx: 0
               splits:
                  - { var:0, quality:2.2918217773437500e+03,
                      le:1.6250000000000000e+02 }
            -
               depth: 5
               value: 0.
               norm_class_idx: 0
            -
               depth: 5
               value: 0.
               norm_class_idx: 0
            -
               depth: 2
               value: 4.
               norm_class_idx: 4
               splits:
                  - { var:1, quality:2.9165494140625000e+04,
                      le:1.8250000000000000e+02 }
            -
               depth: 3
               value: 4.
               norm_class_idx: 4
               splits:
                  - { var:3, quality:1.8870443359375000e+04,
                      le:1.7950000000000000e+02 }
            -
               depth: 4
               value: 4.
               norm_class_idx: 4
               splits:
                  - { var:3, quality:1.1839679687500000e+04,
                      le:1.3150000000000000e+02 }
            -
               depth: 5
               value: 2.
               norm_class_idx: 2
            -
               depth: 5
               value: 4.
               norm_class_idx: 4
            -
               depth: 4
               value: 0.
               norm_class_idx: 0
               splits:
                  - { var:0, quality:8.7800605468750000e+03,
                      le:1.8650000000000000e+02 }
            -
               depth: 5
               value: 4.
               norm_class_idx: 4
            -
               depth: 5
               value: 0.
               norm_class_idx: 0
            -
               depth: 3
               value: 4.
               norm_class_idx: 4
               splits:
                  - { var:2, quality:1.7668458984375000e+04,
                      le:1.6250000000000000e+02 }
            -
               depth: 4
               value: 3.
               norm_class_idx: 3
               splits:
                  - { var:3, quality:1.9649752807617188e+02, le:200. }
            -
               depth: 5
               value: 4.
               norm_class_idx: 4
            -
               depth: 5
               value: 3.
               norm_class_idx: 3
            -
               depth: 4
               value: 4.
               norm_class_idx: 4
               splits:
                  - { var:2, quality:1.7536824218750000e+04,
                      le:1.7450000000000000e+02 }
            -
               depth: 5
               value: 4.
               norm_class_idx: 4
            -
               depth: 5
               value: 4.
               norm_class_idx: 4
      -
         nodes:
            -
               depth: 0
               value: 2.
               norm_class_idx: 2
               splits:
                  - { var:0, quality:9.1919781250000000e+04,
                      le:1.4550000000000000e+02 }
            -
               depth: 1
               value: 5.
               norm_class_idx: 5
               splits:
                  - { var:1, quality:7.3156367187500000e+04,
                      le:1.0150000000000000e+02 }
            -
               depth: 2
               value: 5.
               norm_class_idx: 5
               splits:
                  - { var:1, quality:5.2081070312500000e+04,
                      le:7.0500000000000000e+01 }
            -
               depth: 3
               value: 5.
               norm_class_idx: 5
               splits:
                  - { var:3, quality:3.9754078125000000e+04,
                      le:1.4050000000000000e+02 }
            -
               depth: 4
               value: 5.
               norm_class_idx: 5
               splits:
                  - { var:0, quality:2.8922664062500000e+04,
                      le:5.0500000000000000e+01 }
            -
               depth: 5
               value: 5.
               norm_class_idx: 5
            -
               depth: 5
               value: 5.
               norm_class_idx: 5
            -
               depth: 4
               value: 3.
               norm_class_idx: 3
               splits:
                  - { var:3, quality:1.3239240234375000e+04,
                      le:1.5650000000000000e+02 }
            -
               depth: 5
               value: 3.
               norm_class_idx: 3
            -
               depth: 5
               value: 5.
               norm_class_idx: 5
            -
               depth: 3
               value: 2.
               norm_class_idx: 2
               splits:
                  - { var:0, quality:2.9596699218750000e+04,
                      le:8.1500000000000000e+01 }
            -
               depth: 4
               value: 2.
               norm_class_idx: 2
               splits:
                  - { var:2, quality:2.6603767578125000e+04,
                      le:6.4500000000000000e+01 }
            -
               depth: 5
               value: 5.
               norm_class_idx: 5
            -
               depth: 5
               value: 2.
               norm_class_idx: 2
            -
               depth: 4
               value: 4.
               norm_class_idx: 4
               splits:
                  - { var:3, quality:1.0060556640625000e+04,
                      le:1.4650000000000000e+02 }
            -
               depth: 5
               value: 4.
               norm_class_idx: 4
            -
               depth: 5
               value: 3.
               norm_class_idx: 3
            -
               depth: 2
               value: 1.
               norm_class_idx: 1
               splits:
                  - { var:1, quality:5.7023417968750000e+04,
                      le:1.4050000000000000e+02 }
            -
               depth: 3
               value: 1.
               norm_class_idx: 1
               splits:
                  - { var:2, quality:3.8210582031250000e+04,
                      le:1.1050000000000000e+02 }
            -
               depth: 4
               value: 1.
               norm_class_idx: 1
               splits:
                  - { var:3, quality:4.3882671875000000e+04,
                      le:1.2250000000000000e+02 }
            -
               depth: 5
               value: 2.
               norm_class_idx: 2
            -
               depth: 5
               value: 1.
               norm_class_idx: 1
            -
               depth: 4
               value: 2.
               norm_class_idx: 2
               splits:
                  - { var:3, quality:4.9210693359375000e+03,
                      le:1.3250000000000000e+02 }
            -
               depth: 5
               value: 2.
               norm_class_idx: 2
            -
               depth: 5
               value: 4.
               norm_class_idx: 4
            -
               depth: 3
               value: 3.
               norm_class_idx: 3
               splits:
                  - { var:2, quality:2.2003884765625000e+04,
                      le:1.1750000000000000e+02 }
            -
               depth: 4
               value: 3.
               norm_class_idx: 3
               splits:
                  - { var:3, quality:2.0236134765625000e+04,
                      le:2.0350000000000000e+02 }
            -
               depth: 5
               value: 3.
               norm_class_idx: 3
            -
               depth: 5
               value: 3.
               norm_class_idx: 3
            -
               depth: 4
               value: 3.
               norm_class_idx: 3
               splits:
                  - { var:3, quality:2.3521657714843750e+03,
                      le:2.0650000000000000e+02 }
            -
               depth: 5
               value: 1.
               norm_class_idx: 1
            -
               depth: 5
               value: 3.
               norm_class_idx: 3
            -
               depth: 1
               value: 0.
               norm_class_idx: 0
               splits:
                  - { var:1, quality:6.0390960937500000e+04,
                      le:1.8150000000000000e+02 }
            -
               depth: 2
               value: 0.
               norm_class_idx: 0
               splits:
                  - { var:3, quality:5.3195515625000000e+04,
                      le:1.2150000000000000e+02 }
            -
               depth: 3
               value: 0.
               norm_class_idx: 0
               splits:
                  - { var:0, quality:4.2069156250000000e+04,
                      le:1.4750000000000000e+02 }
            -
               depth: 4
               value: 0.
               norm_class_idx: 0
               splits:
                  - { var:3, quality:5.3555718994140625e+02,
                      le:1.0550000000000000e+02 }
            -
               depth: 5
               value: 0.
               norm_class_idx: 0
            -
               depth: 5
               value: 2.
               norm_class_idx: 2
            -
               depth: 4
               value: 0.
               norm_class_idx: 0
               splits:
                  - { var:2, quality:4.1741609375000000e+04,
                      le:1.3250000000000000e+02 }
            -
               depth: 5
               value: 0.
               norm_class_idx: 0
            -
               depth: 5
               value: 0.
               norm_class_idx: 0
            -
               depth: 3
               value: 4.
               norm_class_idx: 4
               splits:
                  - { var:0, quality:1.8264191406250000e+04,
                      le:1.8650000000000000e+02 }
            -
               depth: 4
               value: 4.
               norm_class_idx: 4
               splits:
                  - { var:0, quality:1.0460178710937500e+04,
                      le:1.5450000000000000e+02 }
            -
               depth: 5
               value: 4.
               norm_class_idx: 4
            -
               depth: 5
               value: 4.
               norm_class_idx: 4
            -
               depth: 4
               value: 0.
               norm_class_idx: 0
               splits:
                  - { var:2, quality:8.1623598632812500e+03,
                      le:1.7150000000000000e+02 }
            -
               depth: 5
               value: 0.
               norm_class_idx: 0
            -
               depth: 5
               value: 4.
               norm_class_idx: 4
            -
               depth: 2
               value: 4.
               norm_class_idx: 4
               splits:
                  - { var:2, quality:1.7705984375000000e+04,
                      le:1.5750000000000000e+02 }
            -
               depth: 3
               value: 3.
               norm_class_idx: 3
               splits:
                  - { var:2, quality:1.5980162048339844e+02,
                      le:1.5250000000000000e+02 }
            -
               depth: 4
               value: 3.
               norm_class_idx: 3
               splits:
                  - { var:3, quality:139., le:1.8350000000000000e+02 }
            -
               depth: 5
               value: 4.
               norm_class_idx: 4
            -
               depth: 5
               value: 3.
               norm_class_idx: 3
            -
               depth: 4
               value: 3.
               norm_class_idx: 3
               splits:
                  - { var:3, quality:4.1437500000000000e+01, le:195. }
            -
               depth: 5
               value: 4.
               norm_class_idx: 4
            -
               depth: 5
               value: 3.
               norm_class_idx: 3
            -
               depth: 3
               value: 4.
               norm_class_idx: 4
               splits:
                  - { var:1, quality:1.7608322265625000e+04,
                      le:1.8350000000000000e+02 }
            -
               depth: 4
               value: 4.
               norm_class_idx: 4
               splits:
                  - { var:3, quality:5.3444067382812500e+02,
                      le:1.7950000000000000e+02 }
            -
               depth: 5
               value: 4.
               norm_class_idx: 4
            -
               depth: 5
               value: 4.
               norm_class_idx: 4
            -
               depth: 4
               value: 4.
               norm_class_idx: 4
               splits:
                  - { var:2, quality:1.7114197265625000e+04,
                      le:1.6250000000000000e+02 }
            -
               depth: 5
               value: 4.
               norm_class_idx: 4
            -
               depth: 5
               value: 4.
               norm_class_idx: 4
      -
         nodes:
            -
               depth: 0
               value: 0.
               norm_class_idx: 0
               splits:
                  - { var:0, quality:9.1925796875000000e+04,
                      le:1.4550000000000000e+02 }
            -
               depth: 1
               value: 1.
               norm_class_idx: 1
               splits:
                  - { var:2, quality:7.1389507812500000e+04,
                      le:6.4500000000000000e+01 }
            -
               depth: 2
               value: 5.
               norm_class_idx: 5
               splits:
                  - { var:0, quality:3.9288789062500000e+04,
                      le:4.5500000000000000e+01 }
            -
               depth: 3
               value: 5.
               norm_class_idx: 5
               splits:
                  - { var:3, quality:2.5376916015625000e+04,
                      le:1.4150000000000000e+02 }
            -
               depth: 4
               value: 5.
               norm_class_idx: 5
               splits:
                  - { var:1, quality:2.3764578125000000e+04,
                      le:4.3500000000000000e+01 }
            -
               depth: 5
               value: 5.
               norm_class_idx: 5
            -
               depth: 5
               value: 5.
               norm_class_idx: 5
            -
               depth: 4
               value: 5.
               norm_class_idx: 5
               splits:
                  - { var:2, quality:1.7355598144531250e+03,
                      le:4.8500000000000000e+01 }
            -
               depth: 5
               value: 5.
               norm_class_idx: 5
            -
               depth: 5
               value: 5.
               norm_class_idx: 5
            -
               depth: 3
               value: 3.
               norm_class_idx: 3
               splits:
                  - { var:3, quality:1.7576650390625000e+04,
                      le:1.3950000000000000e+02 }
            -
               depth: 4
               value: 5.
               norm_class_idx: 5
               splits:
                  - { var:1, quality:4.9570571289062500e+03,
                      le:6.6500000000000000e+01 }
            -
               depth: 5
               value: 5.
               norm_class_idx: 5
            -
               depth: 5
               value: 2.
               norm_class_idx: 2
            -
               depth: 4
               value: 3.
               norm_class_idx: 3
               splits:
                  - { var:1, quality:1.5439550781250000e+04,
                      le:7.0500000000000000e+01 }
            -
               depth: 5
               value: 3.
               norm_class_idx: 3
            -
               depth: 5
               value: 5.
               norm_class_idx: 5
            -
               depth: 2
               value: 1.
               norm_class_idx: 1
               splits:
                  - { var:3, quality:5.7871156250000000e+04,
                      le:2.0650000000000000e+02 }
            -
               depth: 3
               value: 1.
               norm_class_idx: 1
               splits:
                  - { var:1, quality:5.6400089843750000e+04,
                      le:1.0450000000000000e+02 }
            -
               depth: 4
               value: 2.
               norm_class_idx: 2
               splits:
                  - { var:0, quality:3.0285289062500000e+04,
                      le:8.2500000000000000e+01 }
            -
               depth: 5
               value: 2.
               norm_class_idx: 2
            -
               depth: 5
               value: 4.
               norm_class_idx: 4
            -
               depth: 4
               value: 1.
               norm_class_idx: 1
               splits:
                  - { var:0, quality:4.1836957031250000e+04,
                      le:1.1950000000000000e+02 }
            -
               depth: 5
               value: 1.
               norm_class_idx: 1
            -
               depth: 5
               value: 4.
               norm_class_idx: 4
            -
               depth: 3
               value: 3.
               norm_class_idx: 3
               splits:
                  - { var:1, quality:2.2252904296875000e+04,
                      le:1.3850000000000000e+02 }
            -
               depth: 4
               value: 1.
               norm_class_idx: 1
               splits:
                  - { var:0, quality:1.5942810058593750e+03,
                      le:1.0850000000000000e+02 }
            -
               depth: 5
               value: 1.
               norm_class_idx: 1
            -
               depth: 5
               value: 2.
               norm_class_idx: 2
            -
               depth: 4
               value: 3.
               norm_class_idx: 3
               splits:
                  - { var:2, quality:2.1024898437500000e+04,
                      le:1.2850000000000000e+02 }
            -
               depth: 5
               value: 3.
               norm_class_idx: 3
            -
               depth: 5
               value: 3.
               norm_class_idx: 3
            -
               depth: 1
               value: 0.
               norm_class_idx: 0
               splits:
                  - { var:3, quality:6.7247585937500000e+04,
                      le:1.2350000000000000e+02 }
            -
               depth: 2
               value: 0.
               norm_class_idx: 0
               splits:
                  - { var:3, quality:4.2338265625000000e+04,
                      le:1.1650000000000000e+02 }
            -
               depth: 3
               value: 0.
               norm_class_idx: 0
               splits:
                  - { var:3, quality:4.2023464843750000e+04,
                      le:1.1150000000000000e+02 }
            -
               depth: 4
               value: 0.
               norm_class_idx: 0
               splits:
                  - { var:3, quality:4.0444363281250000e+04,
                      le:1.0650000000000000e+02 }
            -
               depth: 5
               value: 0.
               norm_class_idx: 0
            -
               depth: 5
               value: 0.
               norm_class_idx: 0
            -
               depth: 4
               value: 0.
               norm_class_idx: 0
               splits:
                  - { var:1, quality:1.6698210449218750e+03,
                      le:1.4350000000000000e+02 }
            -
               depth: 5
               value: 2.
               norm_class_idx: 2
            -
               depth: 5
               value: 0.
               norm_class_idx: 0
            -
               depth: 3
               value: 0.
               norm_class_idx: 0
               splits:
                  - { var:1, quality:5.8127563476562500e+02,
                      le:1.5250000000000000e+02 }
            -
               depth: 4
               value: 2.
               norm_class_idx: 2
               splits:
                  - { var:3, quality:2.9725924682617188e+02,
                      le:1.1850000000000000e+02 }
            -
               depth: 5
               value: 2.
               norm_class_idx: 2
            -
               depth: 5
               value: 2.
               norm_class_idx: 2
            -
               depth: 4
               value: 0.
               norm_class_idx: 0
               splits:
                  - { var:1, quality:3.0433047485351562e+02,
                      le:1.5550000000000000e+02 }
            -
               depth: 5
               value: 0.
               norm_class_idx: 0
            -
               depth: 5
               value: 0.
               norm_class_idx: 0
            -
               depth: 2
               value: 4.
               norm_class_idx: 4
               splits:
                  - { var:1, quality:2.8576572265625000e+04,
                      le:1.8250000000000000e+02 }
            -
               depth: 3
