%YAML:1.0
---
opencv_ml_rtrees:
   format: 3
   is_classifier: 1
   var_all: 5
   var_count: 4
   ord_var_count: 4
   cat_var_count: 1
   training_params:
      use_surrogates: 0
      max_categories: 10
      regression_accuracy: 0.
      max_depth: 5
      min_sample_count: 10
      cross_validation_folds: 0
      nactive_vars: 0
   global_var_idx: 1
   var_idx: [ 0, 1, 2, 3 ]
   var_type: [ 0, 0, 0, 0, 1 ]
   cat_ofs: [ 0, 0, 0, 0, 0, 0, 0, 0 ]
   class_labels: [ 0, 1, 2, 3, 4, 5 ]
   missing_subst: [ 0., 0., 0., 0., 0. ]
   oob_error: 2.0915277572039770e-01
   ntrees: 100
   trees:
      -
         nodes:
            -
               depth: 0
               value: 4.
               norm_class_idx: 4
               splits:
                  - { var:0, quality:7.8693453125000000e+04,
                      le:1.3950000000000000e+02 }
            -
               depth: 1
               value: 5.
               norm_class_idx: 5
               splits:
                  - { var:1, quality:6.5139738281250000e+04,
                      le:1.3850000000000000e+02 }
            -
               depth: 2
               value: 5.
               norm_class_idx: 5
               splits:
                  - { var:0, quality:5.4236300781250000e+04,
                      le:7.7500000000000000e+01 }
            -
               depth: 3
               value: 5.
               norm_class_idx: 5
               splits:
                  - { var:1, quality:4.9802535156250000e+04,
                      le:3.2899999618530273e-01 }
            -
               depth: 4
               value: 2.
               norm_class_idx: 2
               splits:
                  - { var:0, quality:4.0314328125000000e+04,
                      le:2.9900000095367432e+00 }
            -
               depth: 5
               value: 2.
               norm_class_idx: 2
            -
               depth: 5
               value: 1.
               norm_class_idx: 1
            -
               depth: 4
               value: 5.
               norm_class_idx: 5
               splits:
                  - { var:1, quality:3.4030980468750000e+04,
                      le:5.6500000000000000e+01 }
            -
               depth: 5
               value: 5.
               norm_class_idx: 5
            -
               depth: 5
               value: 5.
               norm_class_idx: 5
            -
               depth: 3
               value: 1.
               norm_class_idx: 1
               splits:
                  - { var:1, quality:2.4885710937500000e+04,
                      le:1.0750000000000000e+02 }
            -
               depth: 4
               value: 4.
               norm_class_idx: 4
               splits:
                  - { var:3, quality:1.3716694335937500e+04,
                      le:1.4650000000000000e+02 }
            -
               depth: 5
               value: 4.
               norm_class_idx: 4
            -
               depth: 5
               value: 3.
               norm_class_idx: 3
            -
               depth: 4
               value: 1.
               norm_class_idx: 1
               splits:
                  - { var:3, quality:2.1102869140625000e+04,
                      le:1.2450000000000000e+02 }
            -
               depth: 5
               value: 2.
               norm_class_idx: 2
            -
               depth: 5
               value: 1.
               norm_class_idx: 1
            -
               depth: 2
               value: 3.
               norm_class_idx: 3
               splits:
                  - { var:2, quality:2.2467062500000000e+04,
                      le:1.1250000000000000e+02 }
            -
               depth: 3
               value: 3.
               norm_class_idx: 3
               splits:
                  - { var:1, quality:1.8384751953125000e+04,
                      le:1.4050000000000000e+02 }
            -
               depth: 4
               value: 3.
               norm_class_idx: 3
               splits:
                  - { var:0, quality:4.4771246337890625e+02, le:111. }
            -
               depth: 5
               value: 3.
               norm_class_idx: 3
            -
               depth: 5
               value: 1.
               norm_class_idx: 1
            -
               depth: 4
               value: 3.
               norm_class_idx: 3
               splits:
                  - { var:2, quality:1.8053390625000000e+04,
                      le:1.0950000000000000e+02 }
            -
               depth: 5
               value: 3.
               norm_class_idx: 3
            -
               depth: 5
               value: 3.
               norm_class_idx: 3
            -
               depth: 3
               value: 3.
               norm_class_idx: 3
               splits:
                  - { var:2, quality:4.1558408203125000e+03,
                      le:1.2350000000000000e+02 }
            -
               depth: 4
               value: 3.
               norm_class_idx: 3
               splits:
                  - { var:0, quality:3.9850578613281250e+03,
                      le:1.2750000000000000e+02 }
            -
               depth: 5
               value: 3.
               norm_class_idx: 3
            -
               depth: 5
               value: 3.
               norm_class_idx: 3
            -
               depth: 4
               value: 3.
               norm_class_idx: 3
               splits:
                  - { var:1, quality:3.6408755493164062e+02,
                      le:1.5950000000000000e+02 }
            -
               depth: 5
               value: 1.
               norm_class_idx: 1
            -
               depth: 5
               value: 3.
               norm_class_idx: 3
            -
               depth: 1
               value: 0.
               norm_class_idx: 0
               splits:
                  - { var:1, quality:4.4204058593750000e+04,
                      le:1.8150000000000000e+02 }
            -
               depth: 2
               value: 0.
               norm_class_idx: 0
               splits:
                  - { var:3, quality:3.8648242187500000e+04,
                      le:1.2250000000000000e+02 }
            -
               depth: 3
               value: 0.
               norm_class_idx: 0
               splits:
                  - { var:0, quality:2.7138021484375000e+04,
                      le:1.4450000000000000e+02 }
            -
               depth: 4
               value: 2.
               norm_class_idx: 2
               splits:
                  - { var:3, quality:1.9467692565917969e+02, le:99. }
            -
               depth: 5
               value: 0.
               norm_class_idx: 0
            -
               depth: 5
               value: 2.
               norm_class_idx: 2
            -
               depth: 4
               value: 0.
               norm_class_idx: 0
               splits:
                  - { var:0, quality:2.6985765625000000e+04,
                      le:1.4650000000000000e+02 }
            -
               depth: 5
               value: 0.
               norm_class_idx: 0
            -
               depth: 5
               value: 0.
               norm_class_idx: 0
            -
               depth: 3
               value: 4.
               norm_class_idx: 4
               splits:
                  - { var:0, quality:1.7170671875000000e+04,
                      le:1.8650000000000000e+02 }
            -
               depth: 4
               value: 4.
               norm_class_idx: 4
               splits:
                  - { var:0, quality:1.2452949218750000e+04,
                      le:1.5250000000000000e+02 }
            -
               depth: 5
               value: 4.
               norm_class_idx: 4
            -
               depth: 5
               value: 4.
               norm_class_idx: 4
            -
               depth: 4
               value: 0.
               norm_class_idx: 0
               splits:
                  - { var:3, quality:5.5971855468750000e+03,
                      le:1.7950000000000000e+02 }
            -
               depth: 5
               value: 4.
               norm_class_idx: 4
            -
               depth: 5
               value: 0.
               norm_class_idx: 0
            -
               depth: 2
               value: 4.
               norm_class_idx: 4
               splits:
                  - { var:2, quality:1.7949339843750000e+04,
                      le:1.5750000000000000e+02 }
            -
               depth: 3
               value: 3.
               norm_class_idx: 3
               splits:
                  - { var:3, quality:1.5901370239257812e+02, le:194. }
            -
               depth: 4
               value: 4.
               norm_class_idx: 4
            -
               depth: 4
               value: 3.
               norm_class_idx: 3
               splits:
                  - { var:3, quality:1.4425000000000000e+02,
                      le:2.2750000000000000e+02 }
            -
               depth: 5
               value: 3.
               norm_class_idx: 3
            -
               depth: 5
               value: 3.
               norm_class_idx: 3
            -
               depth: 3
               value: 4.
               norm_class_idx: 4
               splits:
                  - { var:1, quality:1.7872304687500000e+04,
                      le:1.8250000000000000e+02 }
            -
               depth: 4
               value: 4.
               norm_class_idx: 4
               splits:
                  - { var:0, quality:2.5816647338867188e+02,
                      le:1.9150000000000000e+02 }
            -
               depth: 5
               value: 4.
               norm_class_idx: 4
            -
               depth: 5
               value: 4.
               norm_class_idx: 4
            -
               depth: 4
               value: 4.
               norm_class_idx: 4
               splits:
                  - { var:2, quality:1.7637332031250000e+04,
                      le:1.6150000000000000e+02 }
            -
               depth: 5
               value: 4.
               norm_class_idx: 4
            -
               depth: 5
               value: 4.
               norm_class_idx: 4
      -
         nodes:
            -
               depth: 0
               value: 5.
               norm_class_idx: 5
               splits:
                  - { var:0, quality:7.8481609375000000e+04,
                      le:1.3750000000000000e+02 }
            -
               depth: 1
               value: 5.
               norm_class_idx: 5
               splits:
                  - { var:3, quality:6.5271089843750000e+04,
                      le:1.4250000000000000e+02 }
            -
               depth: 2
               value: 2.
               norm_class_idx: 2
               splits:
                  - { var:0, quality:4.2732718750000000e+04,
                      le:2.9900000095367432e+00 }
            -
               depth: 3
               value: 2.
               norm_class_idx: 2
               splits:
                  - { var:1, quality:2.2140013671875000e+04,
                      le:9.8000001162290573e-03 }
            -
               depth: 4
               value: 2.
               norm_class_idx: 2
               splits:
                  - { var:0, quality:8.8688212890625000e+03,
                      le:1.5000000000000000e+00 }
            -
               depth: 5
               value: 5.
               norm_class_idx: 5
            -
               depth: 5
               value: 2.
               norm_class_idx: 2
            -
               depth: 4
               value: 2.
               norm_class_idx: 2
               splits:
                  - { var:1, quality:1.6362474609375000e+04,
                      le:3.9300000667572021e-01 }
            -
               depth: 5
               value: 2.
               norm_class_idx: 2
            -
               depth: 5
               value: 5.
               norm_class_idx: 5
            -
               depth: 3
               value: 5.
               norm_class_idx: 5
               splits:
                  - { var:1, quality:3.8587042968750000e+04,
                      le:2.5380000472068787e-01 }
            -
               depth: 4
               value: 1.
               norm_class_idx: 1
               splits:
                  - { var:3, quality:3.5454339843750000e+04,
                      le:7.7200002670288086e+00 }
            -
               depth: 5
               value: 1.
               norm_class_idx: 1
            -
               depth: 5
               value: 0.
               norm_class_idx: 0
            -
               depth: 4
               value: 5.
               norm_class_idx: 5
               splits:
                  - { var:0, quality:3.2075007812500000e+04,
                      le:5.7500000000000000e+01 }
            -
               depth: 5
               value: 5.
               norm_class_idx: 5
            -
               depth: 5
               value: 4.
               norm_class_idx: 4
            -
               depth: 2
               value: 3.
               norm_class_idx: 3
               splits:
                  - { var:2, quality:3.5842484375000000e+04,
                      le:7.3500000000000000e+01 }
            -
               depth: 3
               value: 3.
               norm_class_idx: 3
               splits:
                  - { var:1, quality:1.5391805664062500e+04,
                      le:7.0500000000000000e+01 }
            -
               depth: 4
               value: 3.
               norm_class_idx: 3
               splits:
                  - { var:3, quality:1.2599007812500000e+04,
                      le:1.5650000000000000e+02 }
            -
               depth: 5
               value: 3.
               norm_class_idx: 3
            -
               depth: 5
               value: 5.
               norm_class_idx: 5
            -
               depth: 4
               value: 5.
               norm_class_idx: 5
               splits:
                  - { var:0, quality:3.6674433593750000e+03,
                      le:7.7500000000000000e+01 }
            -
               depth: 5
               value: 5.
               norm_class_idx: 5
            -
               depth: 5
               value: 3.
               norm_class_idx: 3
            -
               depth: 3
               value: 3.
               norm_class_idx: 3
               splits:
                  - { var:3, quality:3.2639158203125000e+04,
                      le:2.0650000000000000e+02 }
            -
               depth: 4
               value: 1.
               norm_class_idx: 1
               splits:
                  - { var:3, quality:1.7371421875000000e+04,
                      le:1.8550000000000000e+02 }
            -
               depth: 5
               value: 3.
               norm_class_idx: 3
            -
               depth: 5
               value: 1.
               norm_class_idx: 1
            -
               depth: 4
               value: 3.
               norm_class_idx: 3
               splits:
                  - { var:0, quality:2.0635462890625000e+04,
                      le:9.4500000000000000e+01 }
            -
               depth: 5
               value: 1.
               norm_class_idx: 1
            -
               depth: 5
               value: 3.
               norm_class_idx: 3
            -
               depth: 1
               value: 4.
               norm_class_idx: 4
               splits:
                  - { var:1, quality:4.3822234375000000e+04,
                      le:1.8150000000000000e+02 }
            -
               depth: 2
               value: 0.
               norm_class_idx: 0
               splits:
                  - { var:3, quality:3.8720042968750000e+04,
                      le:1.2250000000000000e+02 }
            -
               depth: 3
               value: 0.
               norm_class_idx: 0
               splits:
                  - { var:0, quality:2.7127386718750000e+04,
                      le:1.4550000000000000e+02 }
            -
               depth: 4
               value: 2.
               norm_class_idx: 2
               splits:
                  - { var:0, quality:3.0807144165039062e+02,
                      le:1.4450000000000000e+02 }
            -
               depth: 5
               value: 2.
               norm_class_idx: 2
            -
               depth: 5
               value: 2.
               norm_class_idx: 2
            -
               depth: 4
               value: 0.
               norm_class_idx: 0
               splits:
                  - { var:0, quality:2.6860500000000000e+04,
                      le:1.4750000000000000e+02 }
            -
               depth: 5
               value: 0.
               norm_class_idx: 0
            -
               depth: 5
               value: 0.
               norm_class_idx: 0
            -
               depth: 3
               value: 4.
               norm_class_idx: 4
               splits:
                  - { var:2, quality:1.6493154296875000e+04,
                      le:1.6250000000000000e+02 }
            -
               depth: 4
               value: 4.
               norm_class_idx: 4
               splits:
                  - { var:1, quality:1.2442638671875000e+04,
                      le:1.6450000000000000e+02 }
            -
               depth: 5
               value: 4.
               norm_class_idx: 4
            -
               depth: 5
               value: 4.
               norm_class_idx: 4
            -
               depth: 4
               value: 0.
               norm_class_idx: 0
               splits:
                  - { var:0, quality:5.6500917968750000e+03,
                      le:1.8750000000000000e+02 }
            -
               depth: 5
               value: 4.
               norm_class_idx: 4
            -
               depth: 5
               value: 0.
               norm_class_idx: 0
            -
               depth: 2
               value: 4.
               norm_class_idx: 4
               splits:
                  - { var:2, quality:1.7876599609375000e+04,
                      le:1.5750000000000000e+02 }
            -
               depth: 3
               value: 3.
               norm_class_idx: 3
               splits:
                  - { var:3, quality:1.8511703491210938e+02,
                      le:1.9450000000000000e+02 }
            -
               depth: 4
               value: 4.
               norm_class_idx: 4
               splits:
                  - { var:1, quality:1.7399999618530273e+01,
                      le:1.8250000000000000e+02 }
            -
               depth: 5
               value: 4.
               norm_class_idx: 4
            -
               depth: 5
               value: 4.
               norm_class_idx: 4
            -
               depth: 4
               value: 3.
               norm_class_idx: 3
               splits:
                  - { var:1, quality:1.6803030395507812e+02,
                      le:1.8650000000000000e+02 }
            -
               depth: 5
               value: 3.
               norm_class_idx: 3
            -
               depth: 5
               value: 3.
               norm_class_idx: 3
            -
               depth: 3
               value: 4.
               norm_class_idx: 4
               splits:
                  - { var:1, quality:1.7754937500000000e+04,
                      le:1.8250000000000000e+02 }
            -
               depth: 4
               value: 4.
               norm_class_idx: 4
               splits:
                  - { var:3, quality:2.6797888183593750e+02,
                      le:1.7950000000000000e+02 }
            -
               depth: 5
               value: 4.
               norm_class_idx: 4
            -
               depth: 5
               value: 4.
               norm_class_idx: 4
            -
               depth: 4
               value: 4.
               norm_class_idx: 4
               splits:
                  - { var:2, quality:1.7508203125000000e+04,
                      le:1.6150000000000000e+02 }
            -
               depth: 5
               value: 4.
               norm_class_idx: 4
            -
               depth: 5
               value: 4.
               norm_class_idx: 4
      -
         nodes:
            -
               depth: 0
               value: 1.
               norm_class_idx: 1
               splits:
                  - { var:3, quality:7.2984343750000000e+04,
                      le:1.4050000000000000e+02 }
            -
               depth: 1
               value: 0.
               norm_class_idx: 0
               splits:
                  - { var:1, quality:5.9010433593750000e+04,
                      le:1.3150000000000000e+02 }
            -
               depth: 2
               value: 2.
               norm_class_idx: 2
               splits:
                  - { var:0, quality:4.2066046875000000e+04,
                      le:2.9900000095367432e+00 }
            -
               depth: 3
               value: 2.
               norm_class_idx: 2
               splits:
                  - { var:3, quality:2.0505810546875000e+04,
                      le:1.5999999642372131e-01 }
            -
               depth: 4
               value: 2.
               norm_class_idx: 2
               splits:
                  - { var:0, quality:2.7986898437500000e+04,
                      le:1.7899999618530273e+00 }
            -
               depth: 5
               value: 5.
               norm_class_idx: 5
            -
               depth: 5
               value: 2.
               norm_class_idx: 2
            -
               depth: 4
               value: 2.
               norm_class_idx: 2
            -
               depth: 3
               value: 1.
               norm_class_idx: 1
               splits:
                  - { var:1, quality:3.7885500000000000e+04,
                      le:2.5080001354217529e-01 }
            -
               depth: 4
               value: 1.
               norm_class_idx: 1
               splits:
                  - { var:3, quality:3.5741832031250000e+04,
                      le:7.8800001144409180e+00 }
            -
               depth: 5
               value: 1.
               norm_class_idx: 1
            -
               depth: 5
               value: 0.
               norm_class_idx: 0
            -
               depth: 4
               value: 5.
               norm_class_idx: 5
               splits:
                  - { var:2, quality:2.8154574218750000e+04,
                      le:5.9500000000000000e+01 }
            -
               depth: 5
               value: 5.
               norm_class_idx: 5
            -
               depth: 5
               value: 2.
               norm_class_idx: 2
            -
               depth: 2
               value: 0.
               norm_class_idx: 0
               splits:
                  - { var:3, quality:2.6635152343750000e+04,
                      le:1.1650000000000000e+02 }
            -
               depth: 3
               value: 0.
               norm_class_idx: 0
               splits:
                  - { var:3, quality:2.6347542968750000e+04,
                      le:1.1250000000000000e+02 }
            -
               depth: 4
               value: 0.
               norm_class_idx: 0
               splits:
                  - { var:1, quality:2.5723103515625000e+04,
                      le:1.3250000000000000e+02 }
            -
               depth: 5
               value: 0.
               norm_class_idx: 0
            -
               depth: 5
               value: 0.
               norm_class_idx: 0
            -
               depth: 4
               value: 0.
               norm_class_idx: 0
               splits:
                  - { var:2, quality:6.9460961914062500e+02,
                      le:1.2250000000000000e+02 }
            -
               depth: 5
               value: 2.
               norm_class_idx: 2
            -
               depth: 5
               value: 0.
               norm_class_idx: 0
            -
               depth: 3
               value: 2.
               norm_class_idx: 2
               splits:
                  - { var:2, quality:4.9455029296875000e+02,
                      le:1.3450000000000000e+02 }
            -
               depth: 4
               value: 2.
               norm_class_idx: 2
               splits:
                  - { var:3, quality:4.4792163085937500e+02,
                      le:1.3250000000000000e+02 }
            -
               depth: 5
               value: 2.
               norm_class_idx: 2
            -
               depth: 5
               value: 4.
               norm_class_idx: 4
            -
               depth: 4
               value: 0.
               norm_class_idx: 0
               splits:
                  - { var:0, quality:2.7829837036132812e+02,
                      le:1.6350000000000000e+02 }
            -
               depth: 5
               value: 2.
               norm_class_idx: 2
            -
               depth: 5
               value: 0.
               norm_class_idx: 0
            -
               depth: 1
               value: 3.
               norm_class_idx: 3
               splits:
                  - { var:1, quality:4.8549101562500000e+04,
                      le:1.8050000000000000e+02 }
            -
               depth: 2
               value: 3.
               norm_class_idx: 3
               splits:
                  - { var:0, quality:4.3821507812500000e+04,
                      le:1.3450000000000000e+02 }
            -
               depth: 3
               value: 3.
               norm_class_idx: 3
               splits:
                  - { var:2, quality:3.6755039062500000e+04,
                      le:7.2500000000000000e+01 }
            -
               depth: 4
               value: 3.
               norm_class_idx: 3
               splits:
                  - { var:1, quality:1.6524585937500000e+04,
                      le:6.9500000000000000e+01 }
            -
               depth: 5
               value: 3.
               norm_class_idx: 3
            -
               depth: 5
               value: 5.
               norm_class_idx: 5
            -
               depth: 4
               value: 3.
               norm_class_idx: 3
               splits:
                  - { var:1, quality:3.4488847656250000e+04,
                      le:1.3950000000000000e+02 }
            -
               depth: 5
               value: 1.
               norm_class_idx: 1
            -
               depth: 5
               value: 3.
               norm_class_idx: 3
            -
               depth: 3
               value: 4.
               norm_class_idx: 4
               splits:
                  - { var:3, quality:1.8203207031250000e+04,
                      le:1.7950000000000000e+02 }
            -
               depth: 4
               value: 4.
               norm_class_idx: 4
               splits:
                  - { var:3, quality:1.4047034179687500e+04,
                      le:1.7850000000000000e+02 }
            -
               depth: 5
               value: 4.
               norm_class_idx: 4
            -
               depth: 5
               value: 4.
               norm_class_idx: 4
            -
               depth: 4
               value: 0.
               norm_class_idx: 0
               splits:
                  - { var:3, quality:6.8655913085937500e+03,
                      le:1.9550000000000000e+02 }
            -
               depth: 5
               value: 0.
               norm_class_idx: 0
            -
               depth: 5
               value: 3.
               norm_class_idx: 3
            -
               depth: 2
               value: 4.
               norm_class_idx: 4
               splits:
                  - { var:2, quality:1.8105191406250000e+04,
                      le:1.5750000000000000e+02 }
            -
               depth: 3
               value: 3.
               norm_class_idx: 3
               splits:
                  - { var:2, quality:2.2205171203613281e+02,
                      le:1.5150000000000000e+02 }
            -
               depth: 4
               value: 3.
               norm_class_idx: 3
               splits:
                  - { var:2, quality:1.9706451416015625e+02,
                      le:1.4850000000000000e+02 }
            -
               depth: 5
               value: 3.
               norm_class_idx: 3
            -
               depth: 5
               value: 3.
               norm_class_idx: 3
            -
               depth: 4
               value: 3.
               norm_class_idx: 3
               splits:
                  - { var:3, quality:48., le:196. }
            -
               depth: 5
               value: 4.
               norm_class_idx: 4
            -
               depth: 5
               value: 3.
               norm_class_idx: 3
            -
               depth: 3
               value: 4.
               norm_class_idx: 4
               splits:
                  - { var:1, quality:1.8030289062500000e+04,
                      le:1.8250000000000000e+02 }
            -
               depth: 4
               value: 4.
               norm_class_idx: 4
               splits:
                  - { var:2, quality:4.9643432617187500e+02,
                      le:1.7350000000000000e+02 }
            -
               depth: 5
               value: 4.
               norm_class_idx: 4
            -
               depth: 5
               value: 4.
               norm_class_idx: 4
            -
               depth: 4
               value: 4.
               norm_class_idx: 4
               splits:
                  - { var:1, quality:1.7564220703125000e+04,
                      le:1.8350000000000000e+02 }
            -
               depth: 5
               value: 4.
               norm_class_idx: 4
            -
               depth: 5
               value: 4.
               norm_class_idx: 4
      -
         nodes:
            -
               depth: 0
               value: 0.
               norm_class_idx: 0
               splits:
                  - { var:0, quality:7.8567132812500000e+04,
                      le:1.3850000000000000e+02 }
            -
               depth: 1
               value: 5.
               norm_class_idx: 5
               splits:
                  - { var:0, quality:6.0493585937500000e+04,
                      le:7.9500000000000000e+01 }
            -
               depth: 2
               value: 5.
               norm_class_idx: 5
               splits:
                  - { var:2, quality:4.9628960937500000e+04, le:8. }
            -
               depth: 3
               value: 2.
               norm_class_idx: 2
               splits:
                  - { var:3, quality:4.0240050781250000e+04,
                      le:7.7200002670288086e+00 }
            -
               depth: 4
               value: 2.
               norm_class_idx: 2
               splits:
                  - { var:3, quality:2.9356796875000000e+04,
                      le:1.5999999642372131e-01 }
            -
               depth: 5
               value: 2.
               norm_class_idx: 2
            -
               depth: 5
               value: 1.
               norm_class_idx: 1
            -
               depth: 4
               value: 0.
               norm_class_idx: 0
               splits:
                  - { var:3, quality:1.6920257812500000e+04,
                      le:8.0200004577636719e+00 }
            -
               depth: 5
               value: 0.
               norm_class_idx: 0
            -
               depth: 5
               value: 0.
               norm_class_idx: 0
            -
               depth: 3
               value: 5.
               norm_class_idx: 5
               splits:
                  - { var:0, quality:3.4773121093750000e+04,
                      le:4.5500000000000000e+01 }
            -
               depth: 4
               value: 5.
               norm_class_idx: 5
               splits:
                  - { var:1, quality:1.8890935546875000e+04,
                      le:5.3500000000000000e+01 }
            -
               depth: 5
               value: 5.
               norm_class_idx: 5
            -
               depth: 5
               value: 5.
               norm_class_idx: 5
            -
               depth: 4
               value: 3.
               norm_class_idx: 3
               splits:
                  - { var:1, quality:2.2537328125000000e+04,
                      le:7.1500000000000000e+01 }
            -
               depth: 5
               value: 3.
               norm_class_idx: 3
            -
               depth: 5
               value: 2.
               norm_class_idx: 2
            -
               depth: 2
               value: 3.
               norm_class_idx: 3
               splits:
                  - { var:3, quality:3.6863875000000000e+04,
                      le:2.0550000000000000e+02 }
            -
               depth: 3
               value: 1.
               norm_class_idx: 1
               splits:
                  - { var:1, quality:2.3273773437500000e+04,
                      le:1.0750000000000000e+02 }
            -
               depth: 4
               value: 4.
               norm_class_idx: 4
               splits:
                  - { var:3, quality:1.3456198242187500e+04,
                      le:1.4850000000000000e+02 }
            -
               depth: 5
               value: 4.
               norm_class_idx: 4
            -
               depth: 5
               value: 3.
               norm_class_idx: 3
            -
               depth: 4
               value: 1.
               norm_class_idx: 1
               splits:
                  - { var:0, quality:1.9743070312500000e+04,
                      le:1.1950000000000000e+02 }
            -
               depth: 5
               value: 1.
               norm_class_idx: 1
            -
               depth: 5
               value: 4.
               norm_class_idx: 4
            -
               depth: 3
               value: 3.
               norm_class_idx: 3
               splits:
                  - { var:0, quality:2.1168042968750000e+04,
                      le:9.4500000000000000e+01 }
            -
               depth: 4
               value: 1.
               norm_class_idx: 1
               splits:
                  - { var:3, quality:7.0193481445312500e+02,
                      le:2.1350000000000000e+02 }
            -
               depth: 5
               value: 1.
               norm_class_idx: 1
            -
               depth: 5
               value: 3.
               norm_class_idx: 3
            -
               depth: 4
               value: 3.
               norm_class_idx: 3
               splits:
                  - { var:1, quality:2.1236298828125000e+04,
                      le:1.3750000000000000e+02 }
            -
               depth: 5
               value: 1.
               norm_class_idx: 1
            -
               depth: 5
               value: 3.
               norm_class_idx: 3
            -
               depth: 1
               value: 0.
               norm_class_idx: 0
               splits:
                  - { var:2, quality:4.5010453125000000e+04,
                      le:1.3250000000000000e+02 }
            -
               depth: 2
               value: 0.
               norm_class_idx: 0
               splits:
                  - { var:1, quality:2.3923410156250000e+04,
                      le:1.3250000000000000e+02 }
            -
               depth: 3
               value: 4.
               norm_class_idx: 4
               splits:
                  - { var:1, quality:1.8531239013671875e+03,
                      le:1.3050000000000000e+02 }
            -
               depth: 4
               value: 4.
               norm_class_idx: 4
               splits:
                  - { var:3, quality:1.5607882080078125e+03, le:119. }
            -
               depth: 5
               value: 0.
               norm_class_idx: 0
            -
               depth: 5
               value: 4.
               norm_class_idx: 4
            -
               depth: 4
               value: 4.
               norm_class_idx: 4
               splits:
                  - { var:3, quality:8.2050775146484375e+02, le:127. }
            -
               depth: 5
               value: 0.
               norm_class_idx: 0
            -
               depth: 5
               value: 4.
               norm_class_idx: 4
            -
               depth: 3
               value: 0.
               norm_class_idx: 0
               splits:
                  - { var:0, quality:2.4480894531250000e+04,
                      le:1.4750000000000000e+02 }
            -
               depth: 4
               value: 4.
               norm_class_idx: 4
               splits:
                  - { var:1, quality:1.6726458740234375e+03,
                      le:1.5550000000000000e+02 }
            -
               depth: 5
               value: 4.
               norm_class_idx: 4
            -
               depth: 5
               value: 3.
               norm_class_idx: 3
            -
               depth: 4
               value: 0.
               norm_class_idx: 0
               splits:
                  - { var:2, quality:2.4037724609375000e+04,
                      le:1.2850000000000000e+02 }
            -
               depth: 5
               value: 0.
               norm_class_idx: 0
            -
               depth: 5
               value: 0.
               norm_class_idx: 0
            -
               depth: 2
               value: 4.
               norm_class_idx: 4
               splits:
                  - { var:1, quality:2.6184224609375000e+04,
                      le:1.8250000000000000e+02 }
            -
               depth: 3
               value: 4.
               norm_class_idx: 4
               splits:
                  - { var:0, quality:1.2264581054687500e+04,
                      le:1.8750000000000000e+02 }
            -
               depth: 4
               value: 4.
               norm_class_idx: 4
               splits:
                  - { var:3, quality:9.5388232421875000e+03, le:134. }
            -
               depth: 5
               value: 0.
               norm_class_idx: 0
            -
               depth: 5
               value: 4.
               norm_class_idx: 4
            -
               depth: 4
               value: 0.
               norm_class_idx: 0
               splits:
                  - { var:3, quality:5.3584433593750000e+03,
                      le:1.7850000000000000e+02 }
            -
               depth: 5
               value: 4.
               norm_class_idx: 4
            -
               depth: 5
               value: 0.
               norm_class_idx: 0
            -
               depth: 3
               value: 4.
               norm_class_idx: 4
               splits:
                  - { var:2, quality:1.7453974609375000e+04,
                      le:1.5750000000000000e+02 }
            -
               depth: 4
               value: 3.
               norm_class_idx: 3
               splits:
                  - { var:2, quality:1.3923529052734375e+02,
                      le:1.4850000000000000e+02 }
            -
               depth: 5
               value: 3.
               norm_class_idx: 3
            -
               depth: 5
               value: 3.
               norm_class_idx: 3
            -
               depth: 4
               value: 4.
               norm_class_idx: 4
               splits:
                  - { var:1, quality:1.7322453125000000e+04,
                      le:1.8450000000000000e+02 }
            -
               depth: 5
               value: 4.
               norm_class_idx: 4
            -
               depth: 5
               value: 4.
               norm_class_idx: 4
      -
         nodes:
            -
               depth: 0
               value: 3.
               norm_class_idx: 3
               splits:
                  - { var:0, quality:7.8695421875000000e+04,
                      le:1.3850000000000000e+02 }
            -
               depth: 1
               value: 1.
               norm_class_idx: 1
               splits:
                  - { var:1, quality:6.4859789062500000e+04,
                      le:1.3950000000000000e+02 }
            -
               depth: 2
               value: 5.
               norm_class_idx: 5
               splits:
                  - { var:1, quality:5.3817273437500000e+04,
                      le:1.0550000000000000e+02 }
            -
               depth: 3
               value: 5.
               norm_class_idx: 5
               splits:
                  - { var:1, quality:4.9581003906250000e+04,
                      le:3.4799998998641968e-01 }
            -
               depth: 4
               value: 2.
               norm_class_idx: 2
               splits:
                  - { var:0, quality:4.0107109375000000e+04,
                      le:2.9900000095367432e+00 }
            -
               depth: 5
               value: 2.
               norm_class_idx: 2
            -
               depth: 5
               value: 1.
               norm_class_idx: 1
            -
               depth: 4
               value: 5.
               norm_class_idx: 5
               splits:
                  - { var:0, quality:3.7001902343750000e+04,
                      le:4.5500000000000000e+01 }
            -
               depth: 5
               value: 5.
               norm_class_idx: 5
            -
               depth: 5
               value: 3.
               norm_class_idx: 3
            -
               depth: 3
               value: 1.
               norm_class_idx: 1
               splits:
                  - { var:0, quality:2.2449001953125000e+04,
                      le:1.1850000000000000e+02 }
            -
               depth: 4
               value: 1.
               norm_class_idx: 1
               splits:
                  - { var:3, quality:2.1028052734375000e+04,
                      le:1.2150000000000000e+02 }
            -
               depth: 5
               value: 2.
               norm_class_idx: 2
            -
               depth: 5
               value: 1.
               norm_class_idx: 1
            -
               depth: 4
               value: 4.
               norm_class_idx: 4
               splits:
                  - { var:0, quality:4.0478552246093750e+03,
                      le:1.2550000000000000e+02 }
            -
               depth: 5
               value: 4.
               norm_class_idx: 4
            -
               depth: 5
               value: 4.
               norm_class_idx: 4
            -
               depth: 2
               value: 3.
               norm_class_idx: 3
               splits:
                  - { var:1, quality:2.2256878906250000e+04,
                      le:1.4350000000000000e+02 }
            -
               depth: 3
               value: 3.
               norm_class_idx: 3
               splits:
                  - { var:2, quality:1.5133997802734375e+03,
                      le:1.0650000000000000e+02 }
            -
               depth: 4
               value: 3.
               norm_class_idx: 3
               splits:
                  - { var:2, quality:1.2446450195312500e+03,
                      le:1.0350000000000000e+02 }
            -
               depth: 5
               value: 3.
               norm_class_idx: 3
            -
               depth: 5
               value: 3.
               norm_class_idx: 3
            -
               depth: 4
               value: 1.
               norm_class_idx: 1
               splits:
                  - { var:0, quality:3.0209786987304688e+02,
                      le:1.3250000000000000e+02 }
            -
               depth: 5
               value: 1.
               norm_class_idx: 1
            -
               depth: 5
               value: 4.
               norm_class_idx: 4
            -
               depth: 3
               value: 3.
               norm_class_idx: 3
               splits:
                  - { var:3, quality:2.1275935546875000e+04,
                      le:1.9750000000000000e+02 }
            -
               depth: 4
               value: 3.
               norm_class_idx: 3
               splits:
                  - { var:2, quality:5.1416667938232422e+01, le:111. }
            -
               depth: 5
               value: 3.
               norm_class_idx: 3
            -
               depth: 5
               value: 1.
               norm_class_idx: 1
            -
               depth: 4
               value: 3.
               norm_class_idx: 3
               splits:
                  - { var:2, quality:2.1336056640625000e+04,
                      le:1.2250000000000000e+02 }
            -
               depth: 5
               value: 3.
               norm_class_idx: 3
            -
               depth: 5
               value: 3.
               norm_class_idx: 3
            -
               depth: 1
               value: 0.
               norm_class_idx: 0
               splits:
                  - { var:3, quality:5.4555699218750000e+04,
                      le:1.2450000000000000e+02 }
            -
               depth: 2
               value: 0.
               norm_class_idx: 0
               splits:
                  - { var:0, quality:2.7270724609375000e+04,
                      le:1.4550000000000000e+02 }
            -
               depth: 3
               value: 2.
               norm_class_idx: 2
               splits:
                  - { var:3, quality:3.2046081542968750e+02,
                      le:1.0050000000000000e+02 }
            -
               depth: 4
               value: 0.
               norm_class_idx: 0
               splits:
                  - { var:3, quality:2.1200000762939453e+01,
                      le:9.7500000000000000e+01 }
            -
               depth: 5
               value: 0.
               norm_class_idx: 0
            -
               depth: 5
               value: 0.
               norm_class_idx: 0
            -
               depth: 4
               value: 2.
               norm_class_idx: 2
               splits:
                  - { var:0, quality:3.0267373657226562e+02,
                      le:1.4450000000000000e+02 }
            -
               depth: 5
               value: 2.
               norm_class_idx: 2
            -
               depth: 5
               value: 2.
               norm_class_idx: 2
            -
               depth: 3
               value: 0.
               norm_class_idx: 0
               splits:
                  - { var:3, quality:2.7084275390625000e+04,
                      le:1.1650000000000000e+02 }
            -
               depth: 4
               value: 0.
               norm_class_idx: 0
               splits:
                  - { var:0, quality:2.6894458984375000e+04,
                      le:1.4750000000000000e+02 }
            -
               depth: 5
               value: 0.
               norm_class_idx: 0
            -
               depth: 5
               value: 0.
               norm_class_idx: 0
            -
               depth: 4
               value: 0.
               norm_class_idx: 0
               splits:
                  - { var:0, quality:3.5517190551757812e+02, le:165. }
            -
               depth: 5
               value: 2.
               norm_class_idx: 2
            -
               depth: 5
               value: 0.
               norm_class_idx: 0
            -
               depth: 2
               value: 4.
               norm_class_idx: 4
               splits:
                  - { var:1, quality:2.9576105468750000e+04,
                      le:1.8250000000000000e+02 }
            -
               depth: 3
               value: 4.
               norm_class_idx: 4
               splits:
                  - { var:0, quality:1.7598587890625000e+04,
                      le:1.8650000000000000e+02 }
            -
               depth: 4
               value: 4.
               norm_class_idx: 4
               splits:
                  - { var:3, quality:1.5017380859375000e+04,
                      le:1.9550000000000000e+02 }
            -
               depth: 5
               value: 4.
               norm_class_idx: 4
            -
               depth: 5
               value: 3.
               norm_class_idx: 3
            -
               depth: 4
               value: 0.
               norm_class_idx: 0
               splits:
                  - { var:3, quality:5.8502573242187500e+03,
                      le:1.7850000000000000e+02 }
            -
               depth: 5
               value: 4.
               norm_class_idx: 4
            -
               depth: 5
               value: 0.
               norm_class_idx: 0
            -
               depth: 3
               value: 4.
               norm_class_idx: 4
               splits:
                  - { var:0, quality:1.7332539062500000e+04,
                      le:1.7950000000000000e+02 }
            -
               depth: 4
               value: 3.
               norm_class_idx: 3
               splits:
                  - { var:3, quality:1.6122857666015625e+02,
                      le:2.0050000000000000e+02 }
            -
               depth: 5
               value: 4.
               norm_class_idx: 4
            -
               depth: 5
               value: 3.
               norm_class_idx: 3
            -
               depth: 4
               value: 4.
               norm_class_idx: 4
               splits:
                  - { var:2, quality:1.7232820312500000e+04,
                      le:1.6150000000000000e+02 }
            -
               depth: 5
               value: 4.
               norm_class_idx: 4
            -
               depth: 5
               value: 4.
               norm_class_idx: 4
      -
         nodes:
            -
               depth: 0
               value: 5.
               norm_class_idx: 5
               splits:
                  - { var:0, quality:7.8651546875000000e+04,
                      le:1.3950000000000000e+02 }
            -
               depth: 1
               value: 5.
               norm_class_idx: 5
               splits:
                  - { var:0, quality:6.0888601562500000e+04,
                      le:7.9500000000000000e+01 }
            -
               depth: 2
               value: 5.
               norm_class_idx: 5
               splits:
                  - { var:2, quality:4.9871304687500000e+04, le:8. }
            -
               depth: 3
               value: 2.
               norm_class_idx: 2
               splits:
                  - { var:3, quality:4.0222808593750000e+04,
                      le:7.7200002670288086e+00 }
            -
               depth: 4
               value: 2.
               norm_class_idx: 2
               splits:
                  - { var:1, quality:2.4613679687500000e+04,
                      le:9.8000001162290573e-03 }
            -
               depth: 5
               value: 1.
               norm_class_idx: 1
            -
               depth: 5
               value: 2.
               norm_class_idx: 2
            -
               depth: 4
               value: 0.
               norm_class_idx: 0
               splits:
                  - { var:0, quality:1.6759164062500000e+04,
                      le:4.0100002288818359e+00 }
            -
               depth: 5
               value: 0.
               norm_class_idx: 0
            -
               depth: 5
               value: 0.
               norm_class_idx: 0
            -
               depth: 3
               value: 5.
               norm_class_idx: 5
               splits:
                  - { var:2, quality:3.4781675781250000e+04,
                      le:6.4500000000000000e+01 }
            -
               depth: 4
               value: 5.
               norm_class_idx: 5
               splits:
                  - { var:1, quality:3.1752150390625000e+04,
                      le:5.5500000000000000e+01 }
            -
               depth: 5
               value: 5.
               norm_class_idx: 5
            -
               depth: 5
               value: 3.
               norm_class_idx: 3
            -
               depth: 4
               value: 2.
               norm_class_idx: 2
               splits:
                  - { var:3, quality:1.2063205078125000e+04,
                      le:1.8650000000000000e+02 }
            -
               depth: 5
               value: 2.
               norm_class_idx: 2
            -
               depth: 5
               value: 1.
               norm_class_idx: 1
            -
               depth: 2
               value: 3.
               norm_class_idx: 3
               splits:
                  - { var:1, quality:3.9239281250000000e+04,
                      le:1.3950000000000000e+02 }
            -
               depth: 3
               value: 1.
               norm_class_idx: 1
               splits:
                  - { var:1, quality:2.4622085937500000e+04,
                      le:1.0750000000000000e+02 }
            -
               depth: 4
               value: 4.
               norm_class_idx: 4
               splits:
                  - { var:3, quality:1.3564086914062500e+04,
                      le:1.4750000000000000e+02 }
            -
               depth: 5
               value: 4.
               norm_class_idx: 4
            -
               depth: 5
               value: 3.
               norm_class_idx: 3
            -
               depth: 4
               value: 1.
               norm_class_idx: 1
               splits:
                  - { var:0, quality:2.1837166015625000e+04,
                      le:1.1950000000000000e+02 }
            -
               depth: 5
               value: 1.
               norm_class_idx: 1
            -
               depth: 5
               value: 4.
               norm_class_idx: 4
            -
               depth: 3
               value: 3.
               norm_class_idx: 3
               splits:
                  - { var:2, quality:2.1903238281250000e+04,
                      le:1.1350000000000000e+02 }
            -
               depth: 4
               value: 3.
               norm_class_idx: 3
               splits:
                  - { var:3, quality:1.8393843750000000e+04,
                      le:2.0250000000000000e+02 }
            -
               depth: 5
               value: 3.
               norm_class_idx: 3
            -
               depth: 5
               value: 3.
               norm_class_idx: 3
            -
               depth: 4
               value: 3.
               norm_class_idx: 3
               splits:
                  - { var:2, quality:3.5734313964843750e+03,
                      le:1.2350000000000000e+02 }
            -
               depth: 5
               value: 3.
               norm_class_idx: 3
            -
               depth: 5
               value: 3.
               norm_class_idx: 3
            -
               depth: 1
               value: 4.
               norm_class_idx: 4
               splits:
                  - { var:3, quality:5.4602335937500000e+04,
                      le:1.2550000000000000e+02 }
            -
               depth: 2
               value: 0.
               norm_class_idx: 0
               splits:
                  - { var:0, quality:2.6979550781250000e+04,
                      le:1.4550000000000000e+02 }
            -
               depth: 3
               value: 2.
               norm_class_idx: 2
               splits:
                  - { var:0, quality:2.3477143859863281e+02,
                      le:1.4450000000000000e+02 }
            -
               depth: 4
               value: 2.
               norm_class_idx: 2
               splits:
                  - { var:3, quality:2.2500909423828125e+02,
                      le:9.9500000000000000e+01 }
            -
               depth: 5
               value: 0.
               norm_class_idx: 0
            -
               depth: 5
               value: 2.
               norm_class_idx: 2
            -
               depth: 4
               value: 0.
               norm_class_idx: 0
               splits:
                  - { var:1, quality:4.3266666412353516e+01,
                      le:1.3750000000000000e+02 }
            -
               depth: 5
               value: 0.
               norm_class_idx: 0
            -
               depth: 5
               value: 2.
               norm_class_idx: 2
            -
               depth: 3
               value: 0.
               norm_class_idx: 0
               splits:
                  - { var:2, quality:2.6811445312500000e+04,
                      le:1.3150000000000000e+02 }
            -
               depth: 4
               value: 0.
               norm_class_idx: 0
               splits:
                  - { var:2, quality:2.5332177734375000e+04,
                      le:1.2850000000000000e+02 }
            -
               depth: 5
               value: 0.
               norm_class_idx: 0
            -
               depth: 5
               value: 0.
               norm_class_idx: 0
            -
               depth: 4
               value: 0.
               norm_class_idx: 0
               splits:
                  - { var:0, quality:1.6471231689453125e+03,
                      le:1.5550000000000000e+02 }
            -
               depth: 5
               value: 2.
               norm_class_idx: 2
            -
               depth: 5
               value: 0.
               norm_class_idx: 0
            -
               depth: 2
               value: 4.
               norm_class_idx: 4
               splits:
                  - { var:1, quality:2.9746632812500000e+04,
                      le:1.8250000000000000e+02 }
            -
               depth: 3
               value: 4.
               norm_class_idx: 4
               splits:
                  - { var:3, quality:1.7438259765625000e+04,
                      le:1.7950000000000000e+02 }
            -
               depth: 4
               value: 4.
               norm_class_idx: 4
               splits:
                  - { var:0, quality:1.3054524414062500e+04,
                      le:1.8450000000000000e+02 }
            -
               depth: 5
               value: 4.
               norm_class_idx: 4
            -
               depth: 5
               value: 4.
               norm_class_idx: 4
            -
               depth: 4
               value: 0.
               norm_class_idx: 0
               splits:
                  - { var:0, quality:6.0323413085937500e+03,
                      le:1.8650000000000000e+02 }
            -
               depth: 5
               value: 3.
               norm_class_idx: 3
            -
               depth: 5
               value: 0.
               norm_class_idx: 0
            -
               depth: 3
               value: 4.
               norm_class_idx: 4
               splits:
                  - { var:3, quality:1.7671689453125000e+04,
                      le:2.1950000000000000e+02 }
            -
               depth: 4
               value: 4.
               norm_class_idx: 4
               splits:
                  - { var:2, quality:1.7701632812500000e+04,
                      le:1.5750000000000000e+02 }
            -
               depth: 5
               value: 3.
               norm_class_idx: 3
            -
               depth: 5
               value: 4.
               norm_class_idx: 4
            -
               depth: 4
               value: 4.
               norm_class_idx: 4
               splits:
                  - { var:2, quality:2.2532098388671875e+02, le:202. }
            -
               depth: 5
               value: 3.
               norm_class_idx: 3
            -
               depth: 5
               value: 4.
               norm_class_idx: 4
      -
         nodes:
            -
               depth: 0
               value: 5.
               norm_class_idx: 5
               splits:
                  - { var:2, quality:7.6102265625000000e+04,
                      le:1.1750000000000000e+02 }
            -
               depth: 1
               value: 5.
               norm_class_idx: 5
               splits:
                  - { var:1, quality:6.3065843750000000e+04,
                      le:1.3950000000000000e+02 }
            -
               depth: 2
               value: 5.
               norm_class_idx: 5
               splits:
                  - { var:0, quality:5.4450136718750000e+04,
                      le:7.8500000000000000e+01 }
            -
               depth: 3
               value: 5.
               norm_class_idx: 5
               splits:
                  - { var:2, quality:4.9932222656250000e+04, le:8. }
            -
               depth: 4
               value: 2.
               norm_class_idx: 2
               splits:
                  - { var:0, quality:4.0348738281250000e+04,
                      le:2.9900000095367432e+00 }
            -
               depth: 5
               value: 2.
               norm_class_idx: 2
            -
               depth: 5
               value: 1.
               norm_class_idx: 1
            -
               depth: 4
               value: 5.
               norm_class_idx: 5
               splits:
                  - { var:1, quality:3.4338058593750000e+04,
                      le:5.6500000000000000e+01 }
            -
               depth: 5
               value: 5.
               norm_class_idx: 5
            -
               depth: 5
               value: 5.
               norm_class_idx: 5
            -
               depth: 3
               value: 1.
               norm_class_idx: 1
               splits:
                  - { var:3, quality:2.4562140625000000e+04,
                      le:1.8350000000000000e+02 }
            -
               depth: 4
               value: 4.
               norm_class_idx: 4
               splits:
                  - { var:3, quality:1.5795290039062500e+04,
                      le:1.5050000000000000e+02 }
            -
               depth: 5
               value: 4.
               norm_class_idx: 4
            -
               depth: 5
               value: 3.
               norm_class_idx: 3
            -
               depth: 4
               value: 1.
               norm_class_idx: 1
               splits:
                  - { var:1, quality:1.2790895507812500e+04,
                      le:1.0450000000000000e+02 }
            -
               depth: 5
               value: 2.
               norm_class_idx: 2
            -
               depth: 5
               value: 1.
               norm_class_idx: 1
            -
               depth: 2
               value: 3.
               norm_class_idx: 3
               splits:
                  - { var:3, quality:2.0371015625000000e+04,
                      le:2.0150000000000000e+02 }
            -
               depth: 3
               value: 3.
               norm_class_idx: 3
               splits:
                  - { var:0, quality:3.1859292602539062e+02,
                      le:1.1950000000000000e+02 }
            -
               depth: 4
               value: 3.
               norm_class_idx: 3
               splits:
                  - { var:2, quality:2.4602490234375000e+02,
                      le:1.0850000000000000e+02 }
            -
               depth: 5
               value: 3.
               norm_class_idx: 3
            -
               depth: 5
               value: 1.
               norm_class_idx: 1
            -
               depth: 4
               value: 1.
               norm_class_idx: 1
               splits:
                  - { var:0, quality:1.4281948852539062e+02,
                      le:1.3950000000000000e+02 }
            -
               depth: 5
               value: 1.
               norm_class_idx: 1
            -
               depth: 5
               value: 4.
               norm_class_idx: 4
            -
               depth: 3
               value: 3.
               norm_class_idx: 3
               splits:
                  - { var:1, quality:2.0175109375000000e+04,
                      le:1.4450000000000000e+02 }
            -
               depth: 4
               value: 3.
               norm_class_idx: 3
               splits:
                  - { var:2, quality:1.7851232910156250e+03,
                      le:1.0650000000000000e+02 }
            -
               depth: 5
               value: 3.
               norm_class_idx: 3
            -
               depth: 5
               value: 1.
               norm_class_idx: 1
            -
               depth: 4
               value: 3.
               norm_class_idx: 3
               splits:
                  - { var:2, quality:1.8685695312500000e+04,
                      le:1.1550000000000000e+02 }
            -
               depth: 5
               value: 3.
               norm_class_idx: 3
            -
               depth: 5
               value: 3.
               norm_class_idx: 3
            -
               depth: 1
               value: 0.
               norm_class_idx: 0
               splits:
                  - { var:3, quality:5.1564437500000000e+04,
                      le:1.2250000000000000e+02 }
            -
               depth: 2
               value: 0.
               norm_class_idx: 0
               splits:
                  - { var:0, quality:2.7213226562500000e+04,
                      le:1.4550000000000000e+02 }
            -
               depth: 3
               value: 2.
               norm_class_idx: 2
               splits:
                  - { var:3, quality:5.5130578613281250e+02,
                      le:9.9500000000000000e+01 }
            -
               depth: 4
               value: 0.
               norm_class_idx: 0
               splits:
                  - { var:1, quality:1.8458333969116211e+01,
                      le:1.3050000000000000e+02 }
            -
               depth: 5
               value: 2.
               norm_class_idx: 2
            -
               depth: 5
               value: 0.
               norm_class_idx: 0
            -
               depth: 4
               value: 2.
               norm_class_idx: 2
               splits:
                  - { var:3, quality:5.3846154785156250e+02,
                      le:1.0350000000000000e+02 }
            -
               depth: 5
               value: 2.
               norm_class_idx: 2
            -
               depth: 5
               value: 2.
               norm_class_idx: 2
            -
               depth: 3
               value: 0.
               norm_class_idx: 0
               splits:
                  - { var:3, quality:2.6754910156250000e+04,
                      le:1.1650000000000000e+02 }
            -
               depth: 4
               value: 0.
               norm_class_idx: 0
               splits:
                  - { var:0, quality:2.6570916015625000e+04,
                      le:1.4750000000000000e+02 }
            -
               depth: 5
               value: 0.
               norm_class_idx: 0
            -
               depth: 5
               value: 0.
               norm_class_idx: 0
            -
               depth: 4
               value: 0.
               norm_class_idx: 0
               splits:
                  - { var:0, quality:3.5205032348632812e+02, le:163. }
            -
               depth: 5
               value: 2.
               norm_class_idx: 2
            -
               depth: 5
               value: 0.
               norm_class_idx: 0
            -
               depth: 2
               value: 4.
               norm_class_idx: 4
               splits:
                  - { var:0, quality:2.7842671875000000e+04,
                      le:1.4150000000000000e+02 }
            -
               depth: 3
               value: 3.
               norm_class_idx: 3
               splits:
                  - { var:1, quality:2.6345332031250000e+03,
                      le:1.5550000000000000e+02 }
            -
               depth: 4
               value: 4.
               norm_class_idx: 4
               splits:
                  - { var:1, quality:7.0739508056640625e+02,
                      le:1.4150000000000000e+02 }
            -
               depth: 5
               value: 4.
               norm_class_idx: 4
            -
               depth: 5
               value: 1.
               norm_class_idx: 1
            -
               depth: 4
               value: 3.
               norm_class_idx: 3
               splits:
                  - { var:2, quality:2.1696711425781250e+03,
                      le:1.3350000000000000e+02 }
            -
               depth: 5
               value: 3.
               norm_class_idx: 3
            -
               depth: 5
               value: 2.
               norm_class_idx: 2
            -
               depth: 3
               value: 4.
               norm_class_idx: 4
               splits:
                  - { var:2, quality:2.8107595703125000e+04,
                      le:1.7250000000000000e+02 }
            -
               depth: 4
               value: 4.
               norm_class_idx: 4
               splits:
                  - { var:2, quality:1.4836193359375000e+04,
                      le:1.6250000000000000e+02 }
            -
               depth: 5
               value: 4.
               norm_class_idx: 4
            -
               depth: 5
               value: 0.
               norm_class_idx: 0
            -
               depth: 4
               value: 4.
               norm_class_idx: 4
               splits:
                  - { var:1, quality:1.6939751953125000e+04,
                      le:1.8450000000000000e+02 }
            -
               depth: 5
               value: 4.
               norm_class_idx: 4
            -
               depth: 5
               value: 4.
               norm_class_idx: 4
      -
         nodes:
            -
               depth: 0
               value: 0.
               norm_class_idx: 0
               splits:
                  - { var:0, quality:7.8684421875000000e+04,
                      le:1.3850000000000000e+02 }
            -
               depth: 1
               value: 5.
               norm_class_idx: 5
               splits:
                  - { var:0, quality:6.0614679687500000e+04,
                      le:7.9500000000000000e+01 }
            -
               depth: 2
               value: 5.
               norm_class_idx: 5
               splits:
                  - { var:1, quality:4.9732011718750000e+04,
                      le:3.2499998807907104e-01 }
            -
               depth: 3
               value: 2.
               norm_class_idx: 2
               splits:
                  - { var:0, quality:4.0329050781250000e+04,
                      le:3.9900000095367432e+00 }
            -
               depth: 4
               value: 2.
               norm_class_idx: 2
               splits:
                  - { var:0, quality:3.9139406250000000e+04,
                      le:2.9900000095367432e+00 }
            -
               depth: 5
               value: 2.
               norm_class_idx: 2
            -
               depth: 5
               value: 1.
               norm_class_idx: 1
            -
               depth: 4
               value: 0.
               norm_class_idx: 0
               splits:
                  - { var:0, quality:1.6929917968750000e+04,
                      le:4.0100002288818359e+00 }
            -
               depth: 5
               value: 0.
               norm_class_idx: 0
            -
               depth: 5
               value: 0.
               norm_class_idx: 0
            -
               depth: 3
               value: 5.
               norm_class_idx: 5
               splits:
                  - { var:1, quality:3.4056230468750000e+04,
                      le:5.6500000000000000e+01 }
            -
               depth: 4
               value: 5.
               norm_class_idx: 5
               splits:
                  - { var:0, quality:1.8219003906250000e+04,
                      le:4.2500000000000000e+01 }
            -
               depth: 5
               value: 5.
               norm_class_idx: 5
            -
               depth: 5
               value: 5.
               norm_class_idx: 5
            -
               depth: 4
               value: 5.
               norm_class_idx: 5
               splits:
                  - { var:1, quality:2.2480050781250000e+04,
                      le:7.1500000000000000e+01 }
            -
               depth: 5
               value: 3.
               norm_class_idx: 3
            -
               depth: 5
               value: 2.
               norm_class_idx: 2
            -
               depth: 2
               value: 3.
               norm_class_idx: 3
               splits:
                  - { var:1, quality:3.9252859375000000e+04,
                      le:1.3950000000000000e+02 }
            -
               depth: 3
               value: 1.
               norm_class_idx: 1
               splits:
                  - { var:1, quality:2.4418636718750000e+04,
                      le:1.0850000000000000e+02 }
            -
               depth: 4
               value: 4.
               norm_class_idx: 4
               splits:
                  - { var:1, quality:1.0763555664062500e+04,
                      le:9.2500000000000000e+01 }
            -
               depth: 5
               value: 4.
               norm_class_idx: 4
            -
               depth: 5
               value: 3.
               norm_class_idx: 3
            -
               depth: 4
               value: 1.
               norm_class_idx: 1
               splits:
                  - { var:0, quality:2.1413535156250000e+04,
                      le:1.1950000000000000e+02 }
            -
               depth: 5
               value: 1.
               norm_class_idx: 1
            -
               depth: 5
               value: 4.
               norm_class_idx: 4
            -
               depth: 3
               value: 3.
               norm_class_idx: 3
               splits:
                  - { var:3, quality:2.2189345703125000e+04,
                      le:2.0250000000000000e+02 }
            -
               depth: 4
               value: 3.
               norm_class_idx: 3
               splits:
                  - { var:3, quality:4.1170336914062500e+02,
                      le:1.8550000000000000e+02 }
            -
               depth: 5
               value: 4.
               norm_class_idx: 4
            -
               depth: 5
               value: 3.
               norm_class_idx: 3
            -
               depth: 4
               value: 3.
               norm_class_idx: 3
               splits:
                  - { var:1, quality:2.1855089843750000e+04,
                      le:1.4350000000000000e+02 }
            -
               depth: 5
               value: 3.
               norm_class_idx: 3
            -
               depth: 5
               value: 3.
               norm_class_idx: 3
            -
               depth: 1
               value: 0.
               norm_class_idx: 0
               splits:
                  - { var:3, quality:5.4860343750000000e+04,
                      le:1.2350000000000000e+02 }
            -
               depth: 2
               value: 0.
               norm_class_idx: 0
               splits:
                  - { var:2, quality:2.7094974609375000e+04,
                      le:1.3050000000000000e+02 }
            -
               depth: 3
               value: 0.
               norm_class_idx: 0
               splits:
                  - { var:3, quality:2.5383306640625000e+04,
                      le:1.1550000000000000e+02 }
            -
               depth: 4
               value: 0.
               norm_class_idx: 0
               splits:
                  - { var:1, quality:2.5263904296875000e+04,
                      le:1.3050000000000000e+02 }
            -
               depth: 5
               value: 0.
               norm_class_idx: 0
            -
               depth: 5
               value: 0.
               norm_class_idx: 0
            -
               depth: 4
               value: 2.
               norm_class_idx: 2
               splits:
                  - { var:1, quality:1.4190338134765625e+02,
                      le:1.4650000000000000e+02 }
            -
               depth: 5
               value: 2.
               norm_class_idx: 2
            -
               depth: 5
               value: 0.
               norm_class_idx: 0
            -
               depth: 3
               value: 0.
               norm_class_idx: 0
               splits:
                  - { var:0, quality:2.1389555664062500e+03,
                      le:1.5250000000000000e+02 }
            -
               depth: 4
               value: 2.
               norm_class_idx: 2
               splits:
                  - { var:3, quality:146., le:103. }
            -
               depth: 5
               value: 0.
               norm_class_idx: 0
            -
               depth: 5
               value: 2.
               norm_class_idx: 2
            -
               depth: 4
               value: 0.
               norm_class_idx: 0
               splits:
                  - { var:0, quality:2.0560539550781250e+03,
                      le:1.6250000000000000e+02 }
            -
               depth: 5
               value: 0.
               norm_class_idx: 0
            -
               depth: 5
               value: 0.
               norm_class_idx: 0
            -
               depth: 2
               value: 4.
               norm_class_idx: 4
               splits:
                  - { var:2, quality:2.9552667968750000e+04,
                      le:1.7250000000000000e+02 }
            -
               depth: 3
               value: 4.
               norm_class_idx: 4
               splits:
                  - { var:3, quality:1.8139667968750000e+04,
                      le:1.7950000000000000e+02 }
            -
               depth: 4
               value: 4.
               norm_class_idx: 4
               splits:
                  - { var:3, quality:1.3964743164062500e+04,
                      le:1.3150000000000000e+02 }
            -
               depth: 5
               value: 2.
               norm_class_idx: 2
            -
               depth: 5
               value: 4.
               norm_class_idx: 4
            -
               depth: 4
               value: 0.
               norm_class_idx: 0
               splits:
                  - { var:3, quality:6.4858090820312500e+03,
                      le:1.9850000000000000e+02 }
            -
               depth: 5
               value: 0.
               norm_class_idx: 0
            -
               depth: 5
               value: 3.
               norm_class_idx: 3
            -
               depth: 3
               value: 4.
               norm_class_idx: 4
               splits:
                  - { var:1, quality:1.6965107421875000e+04,
                      le:1.8550000000000000e+02 }
            -
               depth: 4
               value: 4.
               norm_class_idx: 4
               splits:
                  - { var:2, quality:8.1146221923828125e+02,
                      le:1.7650000000000000e+02 }
            -
               depth: 5
               value: 4.
               norm_class_idx: 4
            -
               depth: 5
               value: 4.
               norm_class_idx: 4
            -
               depth: 4
               value: 4.
               norm_class_idx: 4
               splits:
                  - { var:2, quality:1.6158250000000000e+04,
                      le:1.7850000000000000e+02 }
            -
               depth: 5
               value: 4.
               norm_class_idx: 4
            -
               depth: 5
               value: 4.
               norm_class_idx: 4
      -
         nodes:
            -
               depth: 0
               value: 0.
               norm_class_idx: 0
               splits:
                  - { var:2, quality:7.6354882812500000e+04,
                      le:1.1750000000000000e+02 }
            -
               depth: 1
               value: 5.
               norm_class_idx: 5
               splits:
                  - { var:1, quality:6.3351027343750000e+04,
                      le:1.3850000000000000e+02 }
            -
               depth: 2
               value: 5.
               norm_class_idx: 5
               splits:
                  - { var:0, quality:5.4309425781250000e+04,
                      le:7.7500000000000000e+01 }
            -
               depth: 3
               value: 5.
               norm_class_idx: 5
               splits:
                  - { var:1, quality:4.9819781250000000e+04,
                      le:3.2499998807907104e-01 }
            -
               depth: 4
               value: 2.
               norm_class_idx: 2
               splits:
                  - { var:3, quality:4.0287851562500000e+04,
                      le:7.7200002670288086e+00 }
            -
               depth: 5
               value: 2.
               norm_class_idx: 2
            -
               depth: 5
               value: 0.
               norm_class_idx: 0
            -
               depth: 4
               value: 5.
               norm_class_idx: 5
               splits:
                  - { var:2, quality:3.4503746093750000e+04,
                      le:6.3500000000000000e+01 }
            -
               depth: 5
               value: 5.
               norm_class_idx: 5
            -
               depth: 5
               value: 2.
               norm_class_idx: 2
            -
               depth: 3
               value: 1.
               norm_class_idx: 1
               splits:
                  - { var:3, quality:2.4669505859375000e+04,
                      le:1.8550000000000000e+02 }
            -
               depth: 4
               value: 4.
               norm_class_idx: 4
               splits:
                  - { var:2, quality:1.4981990234375000e+04,
                      le:8.4500000000000000e+01 }
            -
               depth: 5
               value: 4.
               norm_class_idx: 4
            -
               depth: 5
               value: 1.
               norm_class_idx: 1
            -
               depth: 4
               value: 1.
               norm_class_idx: 1
               splits:
                  - { var:1, quality:1.2681761718750000e+04,
                      le:1.0450000000000000e+02 }
            -
               depth: 5
               value: 2.
               norm_class_idx: 2
            -
               depth: 5
               value: 1.
               norm_class_idx: 1
            -
               depth: 2
               value: 3.
               norm_class_idx: 3
               splits:
                  - { var:3, quality:2.0792314453125000e+04,
                      le:1.9950000000000000e+02 }
            -
               depth: 3
               value: 3.
               norm_class_idx: 3
               splits:
                  - { var:0, quality:1.8496701049804688e+02,
                      le:1.3950000000000000e+02 }
            -
               depth: 4
               value: 3.
               norm_class_idx: 3
               splits:
                  - { var:1, quality:1.7082058715820312e+02,
                      le:1.4350000000000000e+02 }
            -
               depth: 5
               value: 1.
               norm_class_idx: 1
            -
               depth: 5
               value: 3.
               norm_class_idx: 3
            -
               depth: 4
               value: 4.
               norm_class_idx: 4
               splits:
                  - { var:0, quality:5.9405796051025391e+01,
                      le:1.4050000000000000e+02 }
            -
               depth: 5
               value: 5.
               norm_class_idx: 5
            -
               depth: 5
               value: 4.
               norm_class_idx: 4
            -
               depth: 3
               value: 3.
               norm_class_idx: 3
               splits:
                  - { var:3, quality:2.0709494140625000e+04,
                      le:2.0450000000000000e+02 }
            -
               depth: 4
               value: 3.
               norm_class_idx: 3
               splits:
                  - { var:0, quality:8.3713256835937500e+02,
                      le:1.1750000000000000e+02 }
            -
               depth: 5
               value: 3.
               norm_class_idx: 3
            -
               depth: 5
               value: 3.
               norm_class_idx: 3
            -
               depth: 4
               value: 3.
               norm_class_idx: 3
               splits:
                  - { var:1, quality:1.9947289062500000e+04,
                      le:1.4450000000000000e+02 }
            -
               depth: 5
               value: 3.
               norm_class_idx: 3
            -
               depth: 5
               value: 3.
               norm_class_idx: 3
            -
               depth: 1
               value: 0.
               norm_class_idx: 0
               splits:
                  - { var:2, quality:4.3399246093750000e+04,
                      le:1.3250000000000000e+02 }
            -
               depth: 2
               value: 0.
               norm_class_idx: 0
               splits:
                  - { var:1, quality:2.4460566406250000e+04,
                      le:1.5550000000000000e+02 }
            -
               depth: 3
               value: 0.
               norm_class_idx: 0
               splits:
                  - { var:3, quality:2.8698888671875000e+04,
                      le:1.1650000000000000e+02 }
            -
               depth: 4
               value: 0.
               norm_class_idx: 0
               splits:
                  - { var:3, quality:2.5279103515625000e+04,
                      le:1.1250000000000000e+02 }
            -
               depth: 5
               value: 0.
               norm_class_idx: 0
            -
               depth: 5
               value: 0.
               norm_class_idx: 0
            -
               depth: 4
               value: 4.
               norm_class_idx: 4
               splits:
                  - { var:0, quality:3.8740209960937500e+03,
                      le:1.3650000000000000e+02 }
            -
               depth: 5
               value: 1.
               norm_class_idx: 1
            -
               depth: 5
               value: 4.
               norm_class_idx: 4
            -
               depth: 3
               value: 3.
               norm_class_idx: 3
               splits:
                  - { var:3, quality:2.8136545410156250e+03,
                      le:1.8650000000000000e+02 }
            -
               depth: 4
               value: 4.
               norm_class_idx: 4
            -
               depth: 4
               value: 3.
               norm_class_idx: 3
               splits:
                  - { var:1, quality:2.8094873046875000e+03,
                      le:1.5750000000000000e+02 }
            -
               depth: 5
               value: 3.
               norm_class_idx: 3
            -
               depth: 5
               value: 3.
               norm_class_idx: 3
            -
               depth: 2
               value: 4.
               norm_class_idx: 4
               splits:
                  - { var:1, quality:2.6293693359375000e+04,
                      le:1.8150000000000000e+02 }
            -
               depth: 3
               value: 4.
               norm_class_idx: 4
               splits:
                  - { var:2, quality:1.1467761718750000e+04,
                      le:1.6250000000000000e+02 }
            -
               depth: 4
               value: 4.
               norm_class_idx: 4
               splits:
                  - { var:3, quality:8.7254091796875000e+03, le:134. }
            -
               depth: 5
               value: 0.
               norm_class_idx: 0
            -
               depth: 5
               value: 4.
               norm_class_idx: 4
            -
               depth: 4
               value: 0.
               norm_class_idx: 0
               splits:
                  - { var:3, quality:5.8721523437500000e+03,
                      le:1.7950000000000000e+02 }
            -
               depth: 5
               value: 4.
               norm_class_idx: 4
            -
               depth: 5
               value: 0.
               norm_class_idx: 0
            -
               depth: 3
               value: 4.
               norm_class_idx: 4
               splits:
                  - { var:2, quality:1.7717103515625000e+04,
                      le:1.5850000000000000e+02 }
            -
               depth: 4
               value: 3.
               norm_class_idx: 3
               splits:
                  - { var:3, quality:1.8638888549804688e+02, le:198. }
            -
               depth: 5
               value: 4.
               norm_class_idx: 4
            -
               depth: 5
               value: 3.
               norm_class_idx: 3
            -
               depth: 4
               value: 4.
               norm_class_idx: 4
               splits:
                  - { var:1, quality:1.7585001953125000e+04,
                      le:1.8350000000000000e+02 }
            -
               depth: 5
               value: 4.
               norm_class_idx: 4
            -
               depth: 5
               value: 4.
               norm_class_idx: 4
      -
         nodes:
            -
               depth: 0
               value: 2.
               norm_class_idx: 2
               splits:
                  - { var:3, quality:7.3010992187500000e+04,
                      le:1.4150000000000000e+02 }
            -
               depth: 1
               value: 0.
               norm_class_idx: 0
               splits:
                  - { var:0, quality:6.0547800781250000e+04,
                      le:1.4650000000000000e+02 }
            -
               depth: 2
               value: 2.
               norm_class_idx: 2
               splits:
                  - { var:3, quality:4.1981394531250000e+04,
                      le:7.7200002670288086e+00 }
            -
               depth: 3
               value: 2.
               norm_class_idx: 2
               splits:
                  - { var:0, quality:3.9289613281250000e+04,
                      le:2.9900000095367432e+00 }
            -
               depth: 4
               value: 2.
               norm_class_idx: 2
               splits:
                  - { var:1, quality:2.2274191406250000e+04,
                      le:9.8000001162290573e-03 }
            -
               depth: 5
               value: 2.
               norm_class_idx: 2
            -
               depth: 5
               value: 2.
               norm_class_idx: 2
            -
               depth: 4
               value: 1.
               norm_class_idx: 1
               splits:
                  - { var:3, quality:1.8549134765625000e+04,
                      le:7.0999999046325684e+00 }
            -
               depth: 5
               value: 1.
               norm_class_idx: 1
            -
               depth: 5
               value: 1.
               norm_class_idx: 1
            -
               depth: 3
               value: 5.
               norm_class_idx: 5
               splits:
                  - { var:2, quality:3.5474925781250000e+04, le:8. }
            -
               depth: 4
               value: 0.
               norm_class_idx: 0
               splits:
                  - { var:0, quality:1.6843289062500000e+04,
                      le:4.0100002288818359e+00 }
            -
               depth: 5
               value: 0.
               norm_class_idx: 0
            -
               depth: 5
               value: 0.
               norm_class_idx: 0
            -
               depth: 4
               value: 5.
               norm_class_idx: 5
               splits:
                  - { var:0, quality:3.1756144531250000e+04,
                      le:5.7500000000000000e+01 }
            -
               depth: 5
               value: 5.
               norm_class_idx: 5
            -
               depth: 5
               value: 4.
               norm_class_idx: 4
            -
               depth: 2
               value: 0.
               norm_class_idx: 0
               splits:
                  - { var:2, quality:2.6882955078125000e+04,
                      le:1.3150000000000000e+02 }
            -
               depth: 3
               value: 0.
               norm_class_idx: 0
               splits:
                  - { var:1, quality:2.5506984375000000e+04,
                      le:1.2850000000000000e+02 }
            -
               depth: 4
               value: 4.
               norm_class_idx: 4
            -
               depth: 4
               value: 0.
               norm_class_idx: 0
               splits:
                  - { var:3, quality:2.5695589843750000e+04,
                      le:1.1750000000000000e+02 }
            -
               depth: 5
               value: 0.
               norm_class_idx: 0
            -
               depth: 5
               value: 4.
               norm_class_idx: 4
            -
               depth: 3
               value: 0.
               norm_class_idx: 0
               splits:
                  - { var:3, quality:1.4979199218750000e+03,
                      le:1.1950000000000000e+02 }
            -
               depth: 4
               value: 0.
               norm_class_idx: 0
               splits:
                  - { var:0, quality:1.5118063964843750e+03,
                      le:1.5550000000000000e+02 }
            -
               depth: 5
               value: 2.
               norm_class_idx: 2
            -
               depth: 5
               value: 0.
               norm_class_idx: 0
            -
               depth: 4
               value: 2.
               norm_class_idx: 2
               splits:
                  - { var:2, quality:1.3684085083007812e+02,
                      le:1.4650000000000000e+02 }
            -
               depth: 5
               value: 2.
               norm_class_idx: 2
            -
               depth: 5
               value: 0.
               norm_class_idx: 0
            -
               depth: 1
               value: 3.
               norm_class_idx: 3
               splits:
                  - { var:2, quality:5.6605406250000000e+04,
                      le:1.2250000000000000e+02 }
            -
               depth: 2
               value: 3.
               norm_class_idx: 3
               splits:
                  - { var:2, quality:3.6006093750000000e+04,
                      le:7.3500000000000000e+01 }
            -
               depth: 3
               value: 3.
               norm_class_idx: 3
               splits:
                  - { var:1, quality:1.5701025390625000e+04,
                      le:7.0500000000000000e+01 }
            -
               depth: 4
               value: 3.
               norm_class_idx: 3
               splits:
                  - { var:0, quality:1.3095543945312500e+04,
                      le:4.3500000000000000e+01 }
            -
               depth: 5
               value: 5.
               norm_class_idx: 5
            -
               depth: 5
               value: 3.
               norm_class_idx: 3
            -
               depth: 4
               value: 5.
               norm_class_idx: 5
               splits:
                  - { var:0, quality:3.7833850097656250e+03,
                      le:7.7500000000000000e+01 }
            -
               depth: 5
               value: 5.
               norm_class_idx: 5
            -
               depth: 5
               value: 3.
               norm_class_idx: 3
            -
               depth: 3
               value: 3.
               norm_class_idx: 3
               splits:
                  - { var:1, quality:3.5247980468750000e+04,
                      le:1.3950000000000000e+02 }
            -
               depth: 4
               value: 1.
               norm_class_idx: 1
               splits:
                  - { var:1, quality:1.8657449218750000e+04,
                      le:1.0750000000000000e+02 }
            -
               depth: 5
               value: 2.
               norm_class_idx: 2
            -
               depth: 5
               value: 1.
               norm_class_idx: 1
            -
               depth: 4
               value: 3.
               norm_class_idx: 3
               splits:
                  - { var:3, quality:2.2445875000000000e+04, le:181. }
            -
               depth: 5
               value: 4.
               norm_class_idx: 4
            -
               depth: 5
               value: 3.
               norm_class_idx: 3
            -
               depth: 2
               value: 4.
               norm_class_idx: 4
               splits:
                  - { var:1, quality:2.7545642578125000e+04,
                      le:1.8250000000000000e+02 }
            -
               depth: 3
               value: 4.
               norm_class_idx: 4
               splits:
                  - { var:3, quality:1.5215446289062500e+04,
                      le:1.7950000000000000e+02 }
            -
               depth: 4
               value: 4.
               norm_class_idx: 4
               splits:
                  - { var:2, quality:1.0895515625000000e+04,
                      le:1.6150000000000000e+02 }
            -
               depth: 5
               value: 4.
               norm_class_idx: 4
            -
               depth: 5
               value: 4.
               norm_class_idx: 4
            -
               depth: 4
               value: 0.
               norm_class_idx: 0
               splits:
                  - { var:3, quality:6.3143911132812500e+03,
                      le:1.9750000000000000e+02 }
            -
               depth: 5
               value: 0.
               norm_class_idx: 0
            -
               depth: 5
               value: 3.
               norm_class_idx: 3
            -
               depth: 3
               value: 4.
               norm_class_idx: 4
               splits:
                  - { var:3, quality:1.7445587890625000e+04,
                      le:2.1550000000000000e+02 }
            -
               depth: 4
               value: 4.
               norm_class_idx: 4
